{"init": {"weights": {"weights-0": [[0.09966799279201415, -0.22133593583314576], [-0.5277919572730667, 1.1763956443850838]], "weights-1": [[-0.8976792744215667, -0.4991131809529411]]}, "bias": {"bias-0": [[0.0], [0.0]], "bias-1": [[0.0], [0.0]], "bias-2": [[0.0]]}}, "epoch-0": {"batch-0": {"fp-0": {"activation-0": [[6], [0]], "bias-0": [[0.0], [0.0]], "activation-1": [[0.5980079567520848], [-0.3166751743638401]], "bias-1": [[0.0], [0.0]], "activation-2": [[0.4064253787124187]], "bias-2": [[0.0]], "weights-0": [[0.09966799279201415, -0.22133593583314576], [-0.5277919572730667, 1.1763956443850838]], "weights-1": [[-0.8976792744215667, -0.4991131809529411]]}, "bp-0": {"err-output": [[0.4064253787124187]], "err-0": [[0.0], [0.0]], "err-1": [[-0.36483963906907446], [-0.0]], "err-2": [[0.4064253787124187]], "current-gradient-0": [[-0.27362972930180585, 0.0], [0.0, 0.0]], "current-gradient-1": [[0.03038070128700072, -0.016088103458705615]]}, "fp-1": {"activation-0": [[0], [9]], "bias-0": [[0.0], [0.0]], "activation-1": [[-0.1992023422498312], [10.587560799465754]], "bias-1": [[0.0], [0.0]], "activation-2": [[0.006026337070426274]], "bias-2": [[0.0]], "weights-0": [[0.09966799279201415, -0.22133593583314576], [-0.5277919572730667, 1.1763956443850838]], "weights-1": [[-0.8976792744215667, -0.4991131809529411]]}, "bp-1": {"err-output": [[0.006026337070426274]], "err-0": [[0.0], [0.0]], "err-1": [[-0.0005409717888800047], [-0.003007824264715086]], "err-2": [[0.006026337070426274]], "current-gradient-0": [[-0.27362972930180585, -0.0006085932624900054], [0.0, -0.0033838022978044716]], "current-gradient-1": [[0.030230643729548735, -0.00811257719230405]]}, "fp-2": {"activation-0": [[0], [3]], "bias-0": [[0.0], [0.0]], "activation-1": [[-0.06640078074994374], [3.5291869331552514]], "bias-1": [[0.0], [0.0]], "activation-2": [[0.1542228712357247]], "bias-2": [[0.0]], "weights-0": [[0.09966799279201415, -0.22133593583314576], [-0.5277919572730667, 1.1763956443850838]], "weights-1": [[-0.8976792744215667, -0.4991131809529411]]}, "bp-2": {"err-output": [[0.1542228712357247]], "err-0": [[0.0], [0.0]], "err-1": [[-0.013844267515009607], [-0.0769746678381584]], "err-2": [[0.1542228712357247]], "current-gradient-0": [[-0.27362972930180585, -0.005800193580618608], [0.0, -0.03224930273711387]], "current-gradient-1": [[0.028950578847104967, 0.05992259055254651]]}, "fp-3": {"activation-0": [[2], [4]], "bias-0": [[0.0], [0.0]], "activation-1": [[-0.06860077577485547], [3.649998662994202]], "bias-1": [[0.0], [0.0]], "activation-2": [[0.14676767872353655]], "bias-2": [[0.0]], "weights-0": [[0.09966799279201415, -0.22133593583314576], [-0.5277919572730667, 1.1763956443850838]], "weights-1": [[-0.8976792744215667, -0.4991131809529411]]}, "bp-3": {"err-output": [[-0.8532323212764633]], "err-0": [[0.0], [0.0]], "err-1": [[0.07659289710764848], [0.4258594979641574]], "err-2": [[-0.8532323212764633]], "current-gradient-0": [[-0.25448150502489375, 0.03249625497320563], [0.10646487449103935, 0.18068044624496482]], "current-gradient-1": [[0.03626712874157323, -0.3293645134327698]]}, "fp-4": {"activation-0": [[5], [0]], "bias-0": [[0.0], [0.0]], "activation-1": [[0.49833996396007074], [-0.26389597863653336]], "bias-1": [[0.0], [0.0]], "activation-2": [[0.4217397776294082]], "bias-2": [[0.0]], "weights-0": [[0.09966799279201415, -0.22133593583314576], [-0.5277919572730667, 1.1763956443850838]], "weights-1": [[-0.8976792744215667, -0.4991131809529411]]}, "bp-4": {"err-output": [[0.42173977762940823]], "err-0": [[0.0], [0.0]], "err-1": [[-0.37858705757708006], [-0.0]], "err-2": [[0.42173977762940823]], "current-gradient-0": [[-0.4910984160105688, 0.03249625497320563], [0.10646487449103935, 0.18068044624496482]], "current-gradient-1": [[0.06253835193961918, -0.34327644235120314]]}, "fp-5": {"activation-0": [[0], [5]], "bias-0": [[0.0], [0.0]], "activation-1": [[-0.11066796791657288], [5.881978221925419]], "bias-1": [[0.0], [0.0]], "activation-2": [[0.055387098942597836]], "bias-2": [[0.0]], "weights-0": [[0.09966799279201415, -0.22133593583314576], [-0.5277919572730667, 1.1763956443850838]], "weights-1": [[-0.8976792744215667, -0.4991131809529411]]}, "bp-5": {"err-output": [[0.055387098942597836]], "err-0": [[0.0], [0.0]], "err-1": [[-0.004971985079110675], [-0.027644431136995287]], "err-2": [[0.055387098942597836]], "current-gradient-0": [[-0.4910984160105688, 0.029388764298761458], [0.10646487449103935, 0.16340267678434278]], "current-gradient-1": [[0.061772154728522745, -0.30255322863170453]]}, "fp-6": {"activation-0": [[1], [0]], "bias-0": [[0.0], [0.0]], "activation-1": [[0.09966799279201415], [-0.052779195727306674]], "bias-1": [[0.0], [0.0]], "activation-2": [[0.484223464020768]], "bias-2": [[0.0]], "weights-0": [[0.09966799279201415, -0.22133593583314576], [-0.5277919572730667, 1.1763956443850838]], "weights-1": [[-0.8976792744215667, -0.4991131809529411]]}, "bp-6": {"err-output": [[0.484223464020768]], "err-0": [[0.0], [0.0]], "err-1": [[-0.4346773678400606], [-0.0]], "err-2": [[0.484223464020768]], "current-gradient-0": [[-0.5454330869905764, 0.029388764298761458], [0.10646487449103935, 0.16340267678434278]], "current-gradient-1": [[0.067804852318741, -0.3057478442546179]]}, "fp-7": {"activation-0": [[0], [7]], "bias-0": [[0.0], [0.0]], "activation-1": [[-0.15493515508320205], [8.234769510695587]], "bias-1": [[0.0], [0.0]], "activation-2": [[0.018505654341761494]], "bias-2": [[0.0]], "weights-0": [[0.09966799279201415, -0.22133593583314576], [-0.5277919572730667, 1.1763956443850838]], "weights-1": [[-0.8976792744215667, -0.4991131809529411]]}, "bp-7": {"err-output": [[0.018505654341761494]], "err-0": [[0.0], [0.0]], "err-1": [[-0.0016612142362208773], [-0.009236416004132185]], "err-2": [[0.018505654341761494]], "current-gradient-0": [[-0.5454330869905764, 0.02793520184206819], [0.10646487449103935, 0.15532081278072712]], "current-gradient-1": [[0.06744645526557139, -0.28669911948599175]]}}, "update-0": {"bias-gradient-1": [[-0.14031620074972348], [0.03862451984001956]], "bias-gradient-2": [[0.08666228258458024]], "weights-gradient-0": [[-0.5454330869905764, 0.02793520184206819], [0.10646487449103935, 0.15532081278072712]], "weights-gradient-1": [[0.06744645526557139, -0.28669911948599175]], "weights-0": [[0.12693964714154296, -0.22273269592524916], [-0.5331152009976187, 1.1686296037460475]], "weights-1": [[-0.9010515971848453, -0.48477822497864154]], "bias-0": [[0.0], [0.0]], "bias-1": [[0.007015810037486175], [-0.0019312259920009778]], "bias-2": [[-0.004333114129229012]]}, "batch-1": {"fp-0": {"activation-0": [[8], [7]], "bias-0": [[0.0], [0.0]], "activation-1": [[-0.053659588430691435], [3.913554392249382]], "bias-1": [[0.007015810037486175], [-0.0019312259920009778]], "activation-2": [[0.13549890555557437]], "bias-2": [[-0.004333114129229012]], "weights-0": [[0.12693964714154296, -0.22273269592524916], [-0.5331152009976187, 1.1686296037460475]], "weights-1": [[-0.9010515971848453, -0.48477822497864154]]}, "bp-0": {"err-output": [[-0.8645010944444256]], "err-0": [[0.0], [0.0]], "err-1": [[0.07789600919171964], [0.41909130605686157]], "err-2": [[-0.8645010944444256]], "current-gradient-0": [[0.07789600919171964, 0.06815900804275468], [0.41909130605686157, 0.3667048927997539]], "current-gradient-1": [[0.005798596615721273, -0.4229090069084224]]}, "fp-1": {"activation-0": [[7], [8]], "bias-0": [[0.0], [0.0]], "activation-1": [[-0.08862682273737064], [5.615299196993049]], "bias-1": [[0.007015810037486175], [-0.0019312259920009778]], "activation-2": [[0.0661957512947134]], "bias-2": [[-0.004333114129229012]], "weights-0": [[0.12693964714154296, -0.22273269592524916], [-0.5331152009976187, 1.1686296037460475]], "weights-1": [[-0.9010515971848453, -0.48477822497864154]]}, "bp-1": {"err-output": [[-0.9338042487052866]], "err-0": [[0.0], [0.0]], "err-1": [[0.08414058097538929], [0.45268796616486273]], "err-2": [[-0.9338042487052866]], "current-gradient-0": [[0.15151901754518526, 0.15229958901814397], [0.8151932764511165, 0.8193928589646167]], "current-gradient-1": [[0.01614360956839715, -1.078357787896359]]}, "fp-2": {"activation-0": [[0], [7]], "bias-0": [[0.0], [0.0]], "activation-1": [[-0.1552113061439258], [8.178476000230331]], "bias-1": [[0.007015810037486175], [-0.0019312259920009778]], "activation-2": [[0.02126440883216428]], "bias-2": [[-0.004333114129229012]], "weights-0": [[0.12693964714154296, -0.22273269592524916], [-0.5331152009976187, 1.1686296037460475]], "weights-1": [[-0.9010515971848453, -0.48477822497864154]]}, "bp-2": {"err-output": [[0.02126440883216428]], "err-0": [[0.0], [0.0]], "err-1": [[-0.0019160329541413155], [-0.010308522368876747]], "err-2": [[0.02126440883216428]], "current-gradient-0": [[0.15151901754518526, 0.15062306018327032], [0.8151932764511165, 0.8103729018918495]], "current-gradient-1": [[0.015731049984744817, -1.0566189807347415]]}, "fp-3": {"activation-0": [[0], [6]], "bias-0": [[0.0], [0.0]], "activation-1": [[-0.13293803655140088], [7.009846396484284]], "bias-1": [[0.007015810037486175], [-0.0019312259920009778]], "activation-2": [[0.03616703363194566]], "bias-2": [[-0.004333114129229012]], "weights-0": [[0.12693964714154296, -0.22273269592524916], [-0.5331152009976187, 1.1686296037460475]], "weights-1": [[-0.9010515971848453, -0.48477822497864154]]}, "bp-3": {"err-output": [[0.03616703363194566]], "err-0": [[0.0], [0.0]], "err-1": [[-0.003258836341950265], [-0.017532990366837448]], "err-2": [[0.03616703363194566]], "current-gradient-0": [[0.15151901754518526, 0.14817893292680762], [0.8151932764511165, 0.7972231591167215]], "current-gradient-1": [[0.0151300531798799, -1.0249283119376889]]}, "fp-4": {"activation-0": [[6], [7]], "bias-0": [[0.0], [0.0]], "activation-1": [[-0.07904751785900002], [4.979784794244619]], "bias-1": [[0.007015810037486175], [-0.0019312259920009778]], "activation-2": [[0.08728871189505642]], "bias-2": [[-0.004333114129229012]], "weights-0": [[0.12693964714154296, -0.22273269592524916], [-0.5331152009976187, 1.1686296037460475]], "weights-1": [[-0.9010515971848453, -0.48477822497864154]]}, "bp-4": {"err-output": [[-0.9127112881049436]], "err-0": [[0.0], [0.0]], "err-1": [[0.0822399963915597], [0.4424625581654841]], "err-2": [[-0.9127112881049436]], "current-gradient-0": [[0.21319901483885503, 0.22013892976942234], [1.1470401950752296, 1.18437789751152]], "current-gradient-1": [[0.024148498410703205, -1.5930665361927412]]}, "fp-5": {"activation-0": [[3], [7]], "bias-0": [[0.0], [0.0]], "activation-1": [[-0.11712941200146293], [6.579130397237475]], "bias-1": [[0.007015810037486175], [-0.0019312259920009778]], "activation-2": [[0.04359609959600925]], "bias-2": [[-0.004333114129229012]], "weights-0": [[0.12693964714154296, -0.22273269592524916], [-0.5331152009976187, 1.1686296037460475]], "weights-1": [[-0.9010515971848453, -0.48477822497864154]]}, "bp-5": {"err-output": [[-0.9564039004039906]], "err-0": [[0.0], [0.0]], "err-1": [[0.08617692620128314], [0.46364378520049604]], "err-2": [[-0.9564039004039906]], "current-gradient-0": [[0.24551536216433623, 0.2955437401955451], [1.3209066145254156, 1.590066209561954]], "current-gradient-1": [[0.03815137672198135, -2.3796047828407882]]}, "fp-6": {"activation-0": [[3], [5]], "bias-0": [[0.0], [0.0]], "activation-1": [[-0.07258287281641308], [4.241871189745381]], "bias-1": [[0.007015810037486175], [-0.0019312259920009778]], "activation-2": [[0.11969738251276399]], "bias-2": [[-0.004333114129229012]], "weights-0": [[0.12693964714154296, -0.22273269592524916], [-0.5331152009976187, 1.1686296037460475]], "weights-1": [[-0.9010515971848453, -0.48477822497864154]]}, "bp-6": {"err-output": [[-0.8803026174872359]], "err-0": [[0.0], [0.0]], "err-1": [[0.07931980794928739], [0.4267515403495143]], "err-2": [[-0.8803026174872359]], "current-gradient-0": [[0.275260290145319, 0.3451186201638497], [1.4809384421564835, 1.8567859222804004]], "current-gradient-1": [[0.0461382383376103, -2.8463710717628574]]}, "fp-7": {"activation-0": [[0], [4]], "bias-0": [[0.0], [0.0]], "activation-1": [[-0.08839149736635105], [4.672587188992189]], "bias-1": [[0.007015810037486175], [-0.0019312259920009778]], "activation-2": [[0.10066509879322838]], "bias-2": [[-0.004333114129229012]], "weights-0": [[0.12693964714154296, -0.22273269592524916], [-0.5331152009976187, 1.1686296037460475]], "weights-1": [[-0.9010515971848453, -0.48477822497864154]]}, "bp-7": {"err-output": [[0.1006650987932284]], "err-0": [[0.0], [0.0]], "err-1": [[-0.00907044480484087], [-0.04880024791028085]], "err-2": [[0.1006650987932284]], "current-gradient-0": [[0.275260290145319, 0.34058339776142926], [1.4809384421564835, 1.83238579832526]], "current-gradient-1": [[0.04502599598575216, -2.7875752653878734]]}}, "update-1": {"bias-gradient-1": [[0.04944100082603834], [0.265999424411403]], "bias-gradient-2": [[-0.5487033259860681]], "weights-gradient-0": [[0.275260290145319, 0.34058339776142926], [1.4809384421564835, 1.83238579832526]], "weights-gradient-1": [[0.04502599598575216, -2.7875752653878734]], "weights-0": [[0.113176632634277, -0.23976186581332062], [-0.6071621231054428, 1.0770103138297844]], "weights-1": [[-0.9033028969841329, -0.34539946170924785]], "bias-0": [[0.0], [0.0]], "bias-1": [[0.004543759996184258], [-0.01523119721257113]], "bias-2": [[0.023102052170074393]]}, "batch-2": {"fp-0": {"activation-0": [[0], [8]], "bias-0": [[0.0], [0.0]], "activation-1": [[-0.1913551166510381], [8.600851313425704]], "bias-1": [[0.004543759996184258], [-0.01523119721257113]], "activation-2": [[0.05870256612984291]], "bias-2": [[0.023102052170074393]], "weights-0": [[0.113176632634277, -0.23976186581332062], [-0.6071621231054428, 1.0770103138297844]], "weights-1": [[-0.9033028969841329, -0.34539946170924785]]}, "bp-0": {"err-output": [[0.05870256612984292]], "err-0": [[0.0], [0.0]], "err-1": [[-0.005302619804548975], [-0.02027583474219927]], "err-2": [[0.05870256612984292]], "current-gradient-0": [[0.0, -0.005302619804548975], [0.0, -0.02027583474219927]], "current-gradient-1": [[-0.0014041295486864212, 0.06311150537491483]]}, "fp-1": {"activation-0": [[0], [5]], "bias-0": [[0.0], [0.0]], "activation-1": [[-0.1194265569070419], [5.369820371936352]], "bias-1": [[0.004543759996184258], [-0.01523119721257113]], "activation-2": [[0.1513884287090439]], "bias-2": [[0.023102052170074393]], "weights-0": [[0.113176632634277, -0.23976186581332062], [-0.6071621231054428, 1.0770103138297844]], "weights-1": [[-0.9033028969841329, -0.34539946170924785]]}, "bp-1": {"err-output": [[0.1513884287090439]], "err-0": [[0.0], [0.0]], "err-1": [[-0.013674960622275523], [-0.052289481785112606]], "err-2": [[0.1513884287090439]], "current-gradient-0": [[0.0, -0.013849470193471176], [0.0, -0.05295676085789465]], "current-gradient-1": [[-0.0036641043982224572, 0.16472758894457207]]}, "fp-2": {"activation-0": [[4], [0]], "bias-0": [[0.0], [0.0]], "activation-1": [[0.4572502905332923], [-0.24438796896343426]], "bias-1": [[0.004543759996184258], [-0.01523119721257113]], "activation-2": [[0.4242081456739449]], "bias-2": [[0.023102052170074393]], "weights-0": [[0.113176632634277, -0.23976186581332062], [-0.6071621231054428, 1.0770103138297844]], "weights-1": [[-0.9033028969841329, -0.34539946170924785]]}, "bp-2": {"err-output": [[0.4242081456739449]], "err-0": [[0.0], [0.0]], "err-1": [[-0.38318844691154147], [-0.0]], "err-2": [[0.4242081456739449]], "current-gradient-0": [[-0.19159422345577073, -0.013849470193471176], [0.0, -0.05295676085789465]], "current-gradient-1": [[0.020582057833777603, 0.15176866805219708]]}, "fp-3": {"activation-0": [[3], [0]], "bias-0": [[0.0], [0.0]], "activation-1": [[0.3440736578990153], [-0.18367175665288996]], "bias-1": [[0.004543759996184258], [-0.01523119721257113]], "activation-2": [[0.4441686584778958]], "bias-2": [[0.023102052170074393]], "weights-0": [[0.113176632634277, -0.23976186581332062], [-0.6071621231054428, 1.0770103138297844]], "weights-1": [[-0.9033028969841329, -0.34539946170924785]]}, "bp-3": {"err-output": [[0.4441686584778958]], "err-0": [[0.0], [0.0]], "err-1": [[-0.4012188359526392], [-0.0]], "err-2": [[0.4441686584778958]], "current-gradient-0": [[-0.34205128693801046, -0.013849470193471176], [0.0, -0.05295676085789465]], "current-gradient-1": [[0.03968539971460111, 0.141571013333098]]}, "fp-4": {"activation-0": [[6], [0]], "bias-0": [[0.0], [0.0]], "activation-1": [[0.6836035558018463], [-0.3658203935845228]], "bias-1": [[0.004543759996184258], [-0.01523119721257113]], "activation-2": [[0.3850791049181891]], "bias-2": [[0.023102052170074393]], "weights-0": [[0.113176632634277, -0.23976186581332062], [-0.6071621231054428, 1.0770103138297844]], "weights-1": [[-0.9033028969841329, -0.34539946170924785]]}, "bp-4": {"err-output": [[0.3850791049181891]], "err-0": [[0.0], [0.0]], "err-1": [[-0.34784307104065704], [-0.0]], "err-2": [[0.3850791049181891]], "current-gradient-0": [[-0.6029335902185032, -0.013849470193471176], [0.0, -0.05295676085789465]], "current-gradient-1": [[0.0725905803879844, 0.12396228961780453]]}, "fp-5": {"activation-0": [[3], [8]], "bias-0": [[0.0], [0.0]], "activation-1": [[-0.157402126860755], [6.779364944109376]], "bias-1": [[0.004543759996184258], [-0.01523119721257113]], "activation-2": [[0.10189856570708479]], "bias-2": [[0.023102052170074393]], "weights-0": [[0.113176632634277, -0.23976186581332062], [-0.6071621231054428, 1.0770103138297844]], "weights-1": [[-0.9033028969841329, -0.34539946170924785]]}, "bp-5": {"err-output": [[-0.8981014342929153]], "err-0": [[0.0], [0.0]], "err-1": [[0.08112576273823953], [0.3102037519650764]], "err-2": [[-0.8981014342929153]], "current-gradient-0": [[-0.5725114291916634, 0.06727629254476836], [0.11632640698690364, 0.25724699110718174]], "current-gradient-1": [[0.09026096487478433, -0.637107382869663]]}, "fp-6": {"activation-0": [[3], [0]], "bias-0": [[0.0], [0.0]], "activation-1": [[0.3440736578990153], [-0.18367175665288996]], "bias-1": [[0.004543759996184258], [-0.01523119721257113]], "activation-2": [[0.4441686584778958]], "bias-2": [[0.023102052170074393]], "weights-0": [[0.113176632634277, -0.23976186581332062], [-0.6071621231054428, 1.0770103138297844]], "weights-1": [[-0.9033028969841329, -0.34539946170924785]]}, "bp-6": {"err-output": [[0.4441686584778958]], "err-0": [[0.0], [0.0]], "err-1": [[-0.4012188359526392], [-0.0]], "err-2": [[0.4441686584778958]], "current-gradient-0": [[-0.7229684926739031, 0.06727629254476836], [0.11632640698690364, 0.25724699110718174]], "current-gradient-1": [[0.10936430675560783, -0.647305037588762]]}, "fp-7": {"activation-0": [[5], [1]], "bias-0": [[0.0], [0.0]], "activation-1": [[0.33066505735424867], [-0.1974031498910001]], "bias-1": [[0.004543759996184258], [-0.01523119721257113]], "activation-2": [[0.4483336512564635]], "bias-2": [[0.023102052170074393]], "weights-0": [[0.113176632634277, -0.23976186581332062], [-0.6071621231054428, 1.0770103138297844]], "weights-1": [[-0.9033028969841329, -0.34539946170924785]]}, "bp-7": {"err-output": [[-0.5516663487435365]], "err-0": [[0.0], [0.0]], "err-1": [[0.4983218109886955], [0.0]], "err-2": [[-0.5516663487435365]], "current-gradient-0": [[-0.4115173608059684, 0.1295665189183553], [0.11632640698690364, 0.25724699110718174]], "current-gradient-1": [[0.08656220864964653, -0.6336924532224069]]}}, "update-2": {"bias-gradient-1": [[-0.12162489956967079], [0.029704804429720563]], "bias-gradient-2": [[0.05724347241879507]], "weights-gradient-0": [[-0.4115173608059684, 0.1295665189183553], [0.11632640698690364, 0.25724699110718174]], "weights-gradient-1": [[0.08656220864964653, -0.6336924532224069]], "weights-0": [[0.13375250067457542, -0.2462401917592384], [-0.612978443454788, 1.0641479642744254]], "weights-1": [[-0.9076310074166153, -0.3137148390481275]], "bias-0": [[0.0], [0.0]], "bias-1": [[0.010625004974667798], [-0.01671643743405716]], "bias-2": [[0.02023987854913464]]}, "batch-3": {"fp-0": {"activation-0": [[6], [0]], "bias-0": [[0.0], [0.0]], "activation-1": [[0.8131400090221202], [-0.36945870981627854]], "bias-1": [[0.010625004974667798], [-0.01671643743405716]], "activation-2": [[0.35391220474746865]], "bias-2": [[0.02023987854913464]], "weights-0": [[0.13375250067457542, -0.2462401917592384], [-0.612978443454788, 1.0641479642744254]], "weights-1": [[-0.9076310074166153, -0.3137148390481275]]}, "bp-0": {"err-output": [[0.35391220474746865]], "err-0": [[0.0], [0.0]], "err-1": [[-0.3212216909319804], [-0.0]], "err-2": [[0.35391220474746865]], "current-gradient-0": [[-0.2409162681989853, 0.0], [0.0, 0.0]], "current-gradient-1": [[0.03597252167017439, -0.016344493319279296]]}, "fp-1": {"activation-0": [[0], [6]], "bias-0": [[0.0], [0.0]], "activation-1": [[-0.14668161455807624], [6.368171348212495]], "bias-1": [[0.010625004974667798], [-0.01671643743405716]], "activation-2": [[0.13652971642438833]], "bias-2": [[0.02023987854913464]], "weights-0": [[0.13375250067457542, -0.2462401917592384], [-0.612978443454788, 1.0641479642744254]], "weights-1": [[-0.9076310074166153, -0.3137148390481275]]}, "bp-1": {"err-output": [[0.13652971642438833]], "err-0": [[0.0], [0.0]], "err-1": [[-0.01239186040605724], [-0.04283139801336348]], "err-2": [[0.13652971642438833]], "current-gradient-0": [[-0.2409162681989853, -0.009293895304542929], [0.0, -0.03212354851002261]], "current-gradient-1": [[0.03346922176513869, 0.09233608521989152]]}, "fp-2": {"activation-0": [[2], [7]], "bias-0": [[0.0], [0.0]], "activation-1": [[-0.14455513359908498], [6.2063624255773435]], "bias-1": [[0.010625004974667798], [-0.01671643743405716]], "activation-2": [[0.14238930267224936]], "bias-2": [[0.02023987854913464]], "weights-0": [[0.13375250067457542, -0.2462401917592384], [-0.612978443454788, 1.0641479642744254]], "weights-1": [[-0.9076310074166153, -0.3137148390481275]]}, "bp-2": {"err-output": [[-0.8576106973277506]], "err-0": [[0.0], [0.0]], "err-1": [[0.07783940611868523], [0.2690452018781277]], "err-2": [[-0.8576106973277506]], "current-gradient-0": [[-0.22145641666931398, 0.058815585049306646], [0.06726130046953192, 0.20329100313333912]], "current-gradient-1": [[0.048965725381165864, -0.5729942657386253]]}, "fp-3": {"activation-0": [[5], [3]], "bias-0": [[0.0], [0.0]], "activation-1": [[-0.0059333066930170285], [0.11083523811527884]], "bias-1": [[0.010625004974667798], [-0.01671643743405716]], "activation-2": [[0.4977136341345835]], "bias-2": [[0.02023987854913464]], "weights-0": [[0.13375250067457542, -0.2462401917592384], [-0.612978443454788, 1.0641479642744254]], "weights-1": [[-0.9076310074166153, -0.3137148390481275]]}, "bp-3": {"err-output": [[-0.5022863658654164]], "err-0": [[0.0], [0.0]], "err-1": [[0.04558906802620585], [0.157574686423538]], "err-2": [[-0.5022863658654164]], "current-gradient-0": [[-0.19296324915293533, 0.07591148555913384], [0.16574547948424317, 0.26238151054216585]], "current-gradient-1": [[0.04933825276321593, -0.5799531443589693]]}, "fp-4": {"activation-0": [[9], [1]], "bias-0": [[0.0], [0.0]], "activation-1": [[0.9681573192866082], [-0.44693744642527244]], "bias-1": [[0.010625004974667798], [-0.01671643743405716]], "activation-2": [[0.3277721120518949]], "bias-2": [[0.02023987854913464]], "weights-0": [[0.13375250067457542, -0.2462401917592384], [-0.612978443454788, 1.0641479642744254]], "weights-1": [[-0.9076310074166153, -0.3137148390481275]]}, "bp-4": {"err-output": [[-0.6722278879481052]], "err-0": [[0.0], [0.0]], "err-1": [[0.6101348751518822], [0.0]], "err-2": [[-0.6722278879481052]], "current-gradient-0": [[0.49343848539293217, 0.1521783449531191], [0.16574547948424317, 0.26238151054216585]], "current-gradient-1": [[-0.03201454097997606, -0.5423976674020468]]}, "fp-5": {"activation-0": [[0], [5]], "bias-0": [[0.0], [0.0]], "activation-1": [[-0.12205759538215243], [5.30402338393807]], "bias-1": [[0.010625004974667798], [-0.01671643743405716]], "activation-2": [[0.17756573130479555]], "bias-2": [[0.02023987854913464]], "weights-0": [[0.13375250067457542, -0.2462401917592384], [-0.612978443454788, 1.0641479642744254]], "weights-1": [[-0.9076310074166153, -0.3137148390481275]]}, "bp-5": {"err-output": [[0.17756573130479553]], "err-0": [[0.0], [0.0]], "err-1": [[-0.01611641635868396], [-0.055705004816746985]], "err-2": [[0.17756573130479553]], "current-gradient-0": [[0.49343848539293217, 0.14210558472894164], [0.16574547948424317, 0.227565882531699]], "current-gradient-1": [[-0.03472369675314315, -0.4246710685237093]]}, "fp-6": {"activation-0": [[1], [0]], "bias-0": [[0.0], [0.0]], "activation-1": [[0.14437750564924323], [-0.06296948808888451]], "bias-1": [[0.010625004974667798], [-0.01671643743405716]], "activation-2": [[0.4772539209103124]], "bias-2": [[0.02023987854913464]], "weights-0": [[0.13375250067457542, -0.2462401917592384], [-0.612978443454788, 1.0641479642744254]], "weights-1": [[-0.9076310074166153, -0.3137148390481275]]}, "bp-6": {"err-output": [[0.4772539209103124]], "err-0": [[0.0], [0.0]], "err-1": [[-0.43317045702935647], [-0.0]], "err-2": [[0.4772539209103124]], "current-gradient-0": [[0.4392921782642626, 0.14210558472894164], [0.16574547948424317, 0.227565882531699]], "current-gradient-1": [[-0.026110605420349136, -0.4284276229097262]]}, "fp-7": {"activation-0": [[0], [1]], "bias-0": [[0.0], [0.0]], "activation-1": [[-0.02356151867845706], [1.0474315268403682]], "bias-1": [[0.010625004974667798], [-0.01671643743405716]], "activation-2": [[0.42874587901016126]], "bias-2": [[0.02023987854913464]], "weights-0": [[0.13375250067457542, -0.2462401917592384], [-0.612978443454788, 1.0641479642744254]], "weights-1": [[-0.9076310074166153, -0.3137148390481275]]}, "bp-7": {"err-output": [[0.42874587901016126]], "err-0": [[0.0], [0.0]], "err-1": [[-0.03891430540917149], [-0.13450394442622068]], "err-2": [[0.42874587901016126]], "current-gradient-0": [[0.4392921782642626, 0.1372412965527952], [0.16574547948424317, 0.2107528894784214]], "current-gradient-1": [[-0.02737334342492531, -0.37229237907496004]]}}, "update-3": {"bias-gradient-1": [[-0.011031422604809518], [0.024197442630666813]], "bias-gradient-2": [[-0.05726468734301826]], "weights-gradient-0": [[0.4392921782642626, 0.1372412965527952], [0.16574547948424317, 0.2107528894784214]], "weights-gradient-1": [[-0.02737334342492531, -0.37229237907496004]], "weights-0": [[0.11178789176136229, -0.2531022565868781], [-0.6212657174290002, 1.0536103198005042]], "weights-1": [[-0.906262340245369, -0.29510022009437953]], "bias-0": [[0.0], [0.0]], "bias-1": [[0.011176576104908274], [-0.0179263095655905]], "bias-2": [[0.023103112916285553]]}, "batch-4": {"fp-0": {"activation-0": [[3], [8]], "bias-0": [[0.0], [0.0]], "activation-1": [[-0.16782778013060298], [6.547159096551443]], "bias-1": [[0.011176576104908274], [-0.0179263095655905]], "activation-2": [[0.14718291167929903]], "bias-2": [[0.023103112916285553]], "weights-0": [[0.11178789176136229, -0.2531022565868781], [-0.6212657174290002, 1.0536103198005042]], "weights-1": [[-0.906262340245369, -0.29510022009437953]]}, "bp-0": {"err-output": [[-0.8528170883207009]], "err-0": [[0.0], [0.0]], "err-1": [[0.077287601026276], [0.25166651046368677]], "err-2": [[-0.8528170883207009]], "current-gradient-0": [[0.0289828503848535, 0.077287601026276], [0.09437494142388253, 0.25166651046368677]], "current-gradient-1": [[0.01789079984878845, -0.697941144686674]]}, "fp-1": {"activation-0": [[0], [3]], "bias-0": [[0.0], [0.0]], "activation-1": [[-0.07481301936557261], [3.142904649835922]], "bias-1": [[0.011176576104908274], [-0.0179263095655905]], "activation-2": [[0.3022579853744529]], "bias-2": [[0.023103112916285553]], "weights-0": [[0.11178789176136229, -0.2531022565868781], [-0.6212657174290002, 1.0536103198005042]], "weights-1": [[-0.906262340245369, -0.29510022009437953]]}, "bp-1": {"err-output": [[0.3022579853744529]], "err-0": [[0.0], [0.0]], "err-1": [[-0.02739250291833022], [-0.0891963980092848]], "err-2": [[0.3022579853744529]], "current-gradient-0": [[0.0289828503848535, 0.06701541243190218], [0.09437494142388253, 0.21821786121020498]], "current-gradient-1": [[0.015064195784636213, -0.5791951412262483]]}, "fp-2": {"activation-0": [[3], [8]], "bias-0": [[0.0], [0.0]], "activation-1": [[-0.16782778013060298], [6.547159096551443]], "bias-1": [[0.011176576104908274], [-0.0179263095655905]], "activation-2": [[0.14718291167929903]], "bias-2": [[0.023103112916285553]], "weights-0": [[0.11178789176136229, -0.2531022565868781], [-0.6212657174290002, 1.0536103198005042]], "weights-1": [[-0.906262340245369, -0.29510022009437953]]}, "bp-2": {"err-output": [[-0.8528170883207009]], "err-0": [[0.0], [0.0]], "err-1": [[0.077287601026276], [0.25166651046368677]], "err-2": [[-0.8528170883207009]], "current-gradient-0": [[0.057965700769707, 0.1443030134581782], [0.18874988284776506, 0.46988437167389174]], "current-gradient-1": [[0.03295499563342466, -1.2771362859129223]]}, "fp-3": {"activation-0": [[0], [8]], "bias-0": [[0.0], [0.0]], "activation-1": [[-0.2013641476590117], [8.410956248838444]], "bias-1": [[0.011176576104908274], [-0.0179263095655905]], "activation-2": [[0.09308943150698308]], "bias-2": [[0.023103112916285553]], "weights-0": [[0.11178789176136229, -0.2531022565868781], [-0.6212657174290002, 1.0536103198005042]], "weights-1": [[-0.906262340245369, -0.29510022009437953]]}, "bp-3": {"err-output": [[0.09308943150698308]], "err-0": [[0.0], [0.0]], "err-1": [[-0.008436344604962948], [-0.027470711726171375]], "err-2": [[0.09308943150698308]], "current-gradient-0": [[0.057965700769707, 0.13586666885321524], [0.18874988284776506, 0.44241365994772036]], "current-gradient-1": [[0.03061188637949146, -1.1792648939586126]]}, "fp-4": {"activation-0": [[6], [0]], "bias-0": [[0.0], [0.0]], "activation-1": [[0.6819039266730821], [-0.3745520614139592]], "bias-1": [[0.011176576104908274], [-0.0179263095655905]], "activation-2": [[0.3812253834133974]], "bias-2": [[0.023103112916285553]], "weights-0": [[0.11178789176136229, -0.2531022565868781], [-0.6212657174290002, 1.0536103198005042]], "weights-1": [[-0.906262340245369, -0.29510022009437953]]}, "bp-4": {"err-output": [[0.38122538341339735]], "err-0": [[0.0], [0.0]], "err-1": [[-0.34549020813316356], [-0.0]], "err-2": [[0.38122538341339735]], "current-gradient-0": [[-0.2011519553301657, 0.13586666885321524], [0.18874988284776506, 0.44241365994772036]], "current-gradient-1": [[0.06310677211662233, -1.1971134881112144]]}, "fp-5": {"activation-0": [[6], [6]], "bias-0": [[0.0], [0.0]], "activation-1": [[-0.08367096128481867], [2.576141304663434]], "bias-1": [[0.011176576104908274], [-0.0179263095655905]], "activation-2": [[0.3404501348310179]], "bias-2": [[0.023103112916285553]], "weights-0": [[0.11178789176136229, -0.2531022565868781], [-0.6212657174290002, 1.0536103198005042]], "weights-1": [[-0.906262340245369, -0.29510022009437953]]}, "bp-5": {"err-output": [[-0.6595498651689822]], "err-0": [[0.0], [0.0]], "err-1": [[0.05977252043165594], [0.19463331037458498]], "err-2": [[-0.6595498651689822]], "current-gradient-0": [[-0.15632256500642372, 0.1806960591769572], [0.3347248656287038, 0.5883886427286591]], "current-gradient-1": [[0.07000491852086749, -1.409500194379591]]}, "fp-6": {"activation-0": [[7], [0]], "bias-0": [[0.0], [0.0]], "activation-1": [[0.7936918184344444], [-0.4366786331568592]], "bias-1": [[0.011176576104908274], [-0.0179263095655905]], "activation-2": [[0.3618540809586616]], "bias-2": [[0.023103112916285553]], "weights-0": [[0.11178789176136229, -0.2531022565868781], [-0.6212657174290002, 1.0536103198005042]], "weights-1": [[-0.906262340245369, -0.29510022009437953]]}, "bp-6": {"err-output": [[0.3618540809586616]], "err-0": [[0.0], [0.0]], "err-1": [[-0.32793472623693387], [-0.0]], "err-2": [[0.3618540809586616]], "current-gradient-0": [[-0.4432654504637409, 0.1806960591769572], [0.3347248656287038, 0.5883886427286591]], "current-gradient-1": [[0.10590499646136808, -1.4292519375639985]]}, "fp-7": {"activation-0": [[5], [1]], "bias-0": [[0.0], [0.0]], "activation-1": [[0.3170137783248416], [-0.2070644576910087]], "bias-1": [[0.011176576104908274], [-0.0179263095655905]], "activation-2": [[0.4494013520791586]], "bias-2": [[0.023103112916285553]], "weights-0": [[0.11178789176136229, -0.2531022565868781], [-0.6212657174290002, 1.0536103198005042]], "weights-1": [[-0.906262340245369, -0.29510022009437953]]}, "bp-7": {"err-output": [[-0.5505986479208413]], "err-0": [[0.0], [0.0]], "err-1": [[0.49898681920067767], [0.0]], "err-2": [[-0.5505986479208413]], "current-gradient-0": [[-0.13139868846331737, 0.2430694115770419], [0.3347248656287038, 0.5883886427286591]], "current-gradient-1": [[0.0840865767466262, -1.415000761259357]]}}, "update-4": {"bias-gradient-1": [[0.0005100949739368782], [0.07266240269581278]], "bias-gradient-2": [[-0.2221694760597163]], "weights-gradient-0": [[-0.13139868846331737, 0.2430694115770419], [0.3347248656287038, 0.5883886427286591]], "weights-gradient-1": [[0.0840865767466262, -1.415000761259357]], "weights-0": [[0.11835782618452816, -0.2652557271657302], [-0.6380019607104354, 1.0241908876640713]], "weights-1": [[-0.9104666690827004, -0.22435018203141166]], "bias-0": [[0.0], [0.0]], "bias-1": [[0.01115107135621143], [-0.02155942970038114]], "bias-2": [[0.03421158671927137]]}, "batch-5": {"fp-0": {"activation-0": [[0], [9]], "bias-0": [[0.0], [0.0]], "activation-1": [[-0.23761504731353603], [9.19615855927626]], "bias-1": [[0.01115107135621143], [-0.02155942970038114]], "activation-2": [[0.14032325933734757]], "bias-2": [[0.03421158671927137]], "weights-0": [[0.11835782618452816, -0.2652557271657302], [-0.6380019607104354, 1.0241908876640713]], "weights-1": [[-0.9104666690827004, -0.22435018203141166]]}, "bp-0": {"err-output": [[0.14032325933734757]], "err-0": [[0.0], [0.0]], "err-1": [[-0.012775965052370278], [-0.031481548775574915]], "err-2": [[0.14032325933734757]], "current-gradient-0": [[0.0, -0.014372960683916563], [0.0, -0.03541674237252178]], "current-gradient-1": [[-0.0041678647383291785, 0.1613043678025864]]}, "fp-1": {"activation-0": [[8], [7]], "bias-0": [[0.0], [0.0]], "activation-1": [[-0.0898776409327675], [2.0437610982646355]], "bias-1": [[0.01115107135621143], [-0.02155942970038114]], "activation-2": [[0.4152081548213526]], "bias-2": [[0.03421158671927137]], "weights-0": [[0.11835782618452816, -0.2652557271657302], [-0.6380019607104354, 1.0241908876640713]], "weights-1": [[-0.9104666690827004, -0.22435018203141166]]}, "bp-1": {"err-output": [[-0.5847918451786474]], "err-0": [[0.0], [0.0]], "err-1": [[0.053243348338652935], [0.13119815691631465]], "err-2": [[-0.5847918451786474]], "current-gradient-0": [[0.053243348338652935, 0.03221496911240475], [0.13119815691631465, 0.07938164492925354]], "current-gradient-1": [[0.0024020991968429503, 0.011907514832772026]]}, "fp-2": {"activation-0": [[3], [0]], "bias-0": [[0.0], [0.0]], "activation-1": [[0.36622454990979586], [-0.19355653118316873]], "bias-1": [[0.01115107135621143], [-0.02155942970038114]], "activation-2": [[0.4363966328037895]], "bias-2": [[0.03421158671927137]], "weights-0": [[0.11835782618452816, -0.2652557271657302], [-0.6380019607104354, 1.0241908876640713]], "weights-1": [[-0.9104666690827004, -0.22435018203141166]]}, "bp-2": {"err-output": [[0.4363966328037895]], "err-0": [[0.0], [0.0]], "err-1": [[-0.3973245886677725], [-0.0]], "err-2": [[0.4363966328037895]], "current-gradient-0": [[-0.09575337241176174, 0.03221496911240475], [0.13119815691631465, 0.07938164492925354]], "current-gradient-1": [[0.02237949425068273, 0.0013490875245824614]]}, "fp-3": {"activation-0": [[8], [8]], "bias-0": [[0.0], [0.0]], "activation-1": [[-0.11640321364934048], [3.0679519859287065]], "bias-1": [[0.01115107135621143], [-0.02155942970038114]], "activation-2": [[0.36630469657436926]], "bias-2": [[0.03421158671927137]], "weights-0": [[0.11835782618452816, -0.2652557271657302], [-0.6380019607104354, 1.0241908876640713]], "weights-1": [[-0.9104666690827004, -0.22435018203141166]]}, "bp-3": {"err-output": [[-0.6336953034256307]], "err-0": [[0.0], [0.0]], "err-1": [[0.05769584521232851], [0.1421696566759909]], "err-2": [[-0.6336953034256307]], "current-gradient-0": [[-0.03805752719943323, 0.08991081432473326], [0.27336781359230555, 0.22155130160524444]], "current-gradient-1": [[0.0316000154748374, -0.2416692580527123]]}, "fp-4": {"activation-0": [[3], [0]], "bias-0": [[0.0], [0.0]], "activation-1": [[0.36622454990979586], [-0.19355653118316873]], "bias-1": [[0.01115107135621143], [-0.02155942970038114]], "activation-2": [[0.4363966328037895]], "bias-2": [[0.03421158671927137]], "weights-0": [[0.11835782618452816, -0.2652557271657302], [-0.6380019607104354, 1.0241908876640713]], "weights-1": [[-0.9104666690827004, -0.22435018203141166]]}, "bp-4": {"err-output": [[0.4363966328037895]], "err-0": [[0.0], [0.0]], "err-1": [[-0.3973245886677725], [-0.0]], "err-2": [[0.4363966328037895]], "current-gradient-0": [[-0.1870542479498479, 0.08991081432473326], [0.27336781359230555, 0.22155130160524444]], "current-gradient-1": [[0.05157741052867718, -0.25222768536090184]]}, "fp-5": {"activation-0": [[3], [5]], "bias-0": [[0.0], [0.0]], "activation-1": [[-0.0960054085918855], [3.185389126488669]], "bias-1": [[0.01115107135621143], [-0.02155942970038114]], "activation-2": [[0.35594192408601244]], "bias-2": [[0.03421158671927137]], "weights-0": [[0.11835782618452816, -0.2652557271657302], [-0.6380019607104354, 1.0241908876640713]], "weights-1": [[-0.9104666690827004, -0.22435018203141166]]}, "bp-5": {"err-output": [[-0.6440580759139876]], "err-0": [[0.0], [0.0]], "err-1": [[0.05863934110732212], [0.14449454657010385]], "err-2": [[-0.6440580759139876]], "current-gradient-0": [[-0.1650644950346021, 0.12656040251680958], [0.3275532685560945, 0.31186039321155934]], "current-gradient-1": [[0.05930654287055543, -0.5086746343413555]]}, "fp-6": {"activation-0": [[0], [4]], "bias-0": [[0.0], [0.0]], "activation-1": [[-0.10498718373067094], [4.075204120955904]], "bias-1": [[0.01115107135621143], [-0.02155942970038114]], "activation-2": [[0.31335646696897973]], "bias-2": [[0.03421158671927137]], "weights-0": [[0.11835782618452816, -0.2652557271657302], [-0.6380019607104354, 1.0241908876640713]], "weights-1": [[-0.9104666690827004, -0.22435018203141166]]}, "bp-6": {"err-output": [[0.3133564669689797]], "err-0": [[0.0], [0.0]], "err-1": [[-0.028530061871677018], [-0.07030158040521063]], "err-2": [[0.3133564669689797]], "current-gradient-0": [[-0.1650644950346021, 0.11229537158097108], [0.3275532685560945, 0.27670960300895403]], "current-gradient-1": [[0.055194241249197154, -0.34905068865133443]]}, "fp-7": {"activation-0": [[0], [1]], "bias-0": [[0.0], [0.0]], "activation-1": [[-0.02541046558095188], [1.0026314579636901]], "bias-1": [[0.01115107135621143], [-0.02155942970038114]], "activation-2": [[0.45819939878242716]], "bias-2": [[0.03421158671927137]], "weights-0": [[0.11835782618452816, -0.2652557271657302], [-0.6380019607104354, 1.0241908876640713]], "weights-1": [[-0.9104666690827004, -0.22435018203141166]]}, "bp-7": {"err-output": [[0.45819939878242716]], "err-0": [[0.0], [0.0]], "err-1": [[-0.04171752803851324], [-0.10279711852352091]], "err-2": [[0.45819939878242716]], "current-gradient-0": [[-0.1650644950346021, 0.10708068057615693], [0.3275532685560945, 0.2638599631935139]], "current-gradient-1": [[0.05373885874270044, -0.2916250472464205]]}}, "update-5": {"bias-gradient-1": [[-0.08851177470497523], [0.02666026405726287]], "bias-gradient-2": [[-0.009734104227741534]], "weights-gradient-0": [[-0.1650644950346021, 0.10708068057615693], [0.3275532685560945, 0.2638599631935139]], "weights-gradient-1": [[0.05373885874270044, -0.2916250472464205]], "weights-0": [[0.12661105093625827, -0.27060976119453806], [-0.6543796241382401, 1.0109978895043956]], "weights-1": [[-0.9131536120198354, -0.20976892966909064]], "bias-0": [[0.0], [0.0]], "bias-1": [[0.015576660091460193], [-0.022892442903244284]], "bias-2": [[0.034698291930658445]]}, "batch-6": {"fp-0": {"activation-0": [[4], [7]], "bias-0": [[0.0], [0.0]], "activation-1": [[-0.13722474645252733], [4.436574287074564]], "bias-1": [[0.015576660091460193], [-0.022892442903244284]], "activation-2": [[0.31633854206666256]], "bias-2": [[0.034698291930658445]], "weights-0": [[0.12661105093625827, -0.27060976119453806], [-0.6543796241382401, 1.0109978895043956]], "weights-1": [[-0.9131536120198354, -0.20976892966909064]]}, "bp-0": {"err-output": [[-0.6836614579333374]], "err-0": [[0.0], [0.0]], "err-1": [[0.062428792971057384], [0.14341093228668622]], "err-2": [[-0.6836614579333374]], "current-gradient-0": [[0.031214396485528692, 0.05462519384967521], [0.07170546614334311, 0.12548456575085043]], "current-gradient-1": [[0.011726908778033425, -0.37913935566636925]]}, "fp-1": {"activation-0": [[1], [0]], "bias-0": [[0.0], [0.0]], "activation-1": [[0.14218771102771846], [-0.06772720670414845]], "bias-1": [[0.015576660091460193], [-0.022892442903244284]], "activation-2": [[0.4797775707811251]], "bias-2": [[0.034698291930658445]], "weights-0": [[0.12661105093625827, -0.27060976119453806], [-0.6543796241382401, 1.0109978895043956]], "weights-1": [[-0.9131536120198354, -0.20976892966909064]]}, "bp-1": {"err-output": [[0.4797775707811251]], "err-0": [[0.0], [0.0]], "err-1": [[-0.43811062172488663], [-0.0]], "err-2": [[0.4797775707811251]], "current-gradient-0": [[-0.023549431230082137, 0.05462519384967521], [0.07170546614334311, 0.12548456575085043]], "current-gradient-1": [[0.020254218102009343, -0.38320110500490767]]}, "fp-2": {"activation-0": [[8], [1]], "bias-0": [[0.0], [0.0]], "activation-1": [[0.7578553063869883], [-0.42469315465047697]], "bias-1": [[0.015576660091460193], [-0.022892442903244284]], "activation-2": [[0.36164012827903613]], "bias-2": [[0.034698291930658445]], "weights-0": [[0.12661105093625827, -0.27060976119453806], [-0.6543796241382401, 1.0109978895043956]], "weights-1": [[-0.9131536120198354, -0.20976892966909064]]}, "bp-2": {"err-output": [[-0.6383598717209639]], "err-0": [[0.0], [0.0]], "err-1": [[0.5829206226305169], [0.0]], "err-2": [[-0.6383598717209639]], "current-gradient-0": [[0.5593711914004348, 0.1274902716784898], [0.07170546614334311, 0.12548456575085043]], "current-gradient-1": [[-0.04021883391902186, -0.34931272153947646]]}, "fp-3": {"activation-0": [[0], [4]], "bias-0": [[0.0], [0.0]], "activation-1": [[-0.1066862384686692], [4.021099115114338]], "bias-1": [[0.015576660091460193], [-0.022892442903244284]], "activation-2": [[0.3292934431394884]], "bias-2": [[0.034698291930658445]], "weights-0": [[0.12661105093625827, -0.27060976119453806], [-0.6543796241382401, 1.0109978895043956]], "weights-1": [[-0.9131536120198354, -0.20976892966909064]]}, "bp-3": {"err-output": [[0.3292934431394884]], "err-0": [[0.0], [0.0]], "err-1": [[-0.030069549701727212], [-0.06907553311442004]], "err-2": [[0.3292934431394884]], "current-gradient-0": [[0.5593711914004348, 0.1124554968276262], [0.07170546614334311, 0.0909467991936404]], "current-gradient-1": [[-0.04461021876914044, -0.18379752493683266]]}, "fp-4": {"activation-0": [[7], [8]], "bias-0": [[0.0], [0.0]], "activation-1": [[-0.12630240729110365], [3.4844333041642397]], "bias-1": [[0.015576660091460193], [-0.022892442903244284]], "activation-2": [[0.3587268979546151]], "bias-2": [[0.034698291930658445]], "weights-0": [[0.12661105093625827, -0.27060976119453806], [-0.6543796241382401, 1.0109978895043956]], "weights-1": [[-0.9131536120198354, -0.20976892966909064]]}, "bp-4": {"err-output": [[-0.6412731020453849]], "err-0": [[0.0], [0.0]], "err-1": [[0.058558084942390766], [0.13451917224163792]], "err-2": [[-0.6412731020453849]], "current-gradient-0": [[0.6106095157250268, 0.17101358177001696], [0.1894097418547763, 0.22546597143527833]], "current-gradient-1": [[-0.03448592670421973, -0.4631066941657892]]}, "fp-5": {"activation-0": [[8], [0]], "bias-0": [[0.0], [0.0]], "activation-1": [[1.0284650675815263], [-0.5257929436009166]], "bias-1": [[0.015576660091460193], [-0.022892442903244284]], "activation-2": [[0.3112775768812013]], "bias-2": [[0.034698291930658445]], "weights-0": [[0.12661105093625827, -0.27060976119453806], [-0.6543796241382401, 1.0109978895043956]], "weights-1": [[-0.9131536120198354, -0.20976892966909064]]}, "bp-5": {"err-output": [[0.31127757688120133]], "err-0": [[0.0], [0.0]], "err-1": [[-0.284244243669851], [-0.0]], "err-2": [[0.31127757688120133]], "current-gradient-0": [[0.32636527205517574, 0.17101358177001696], [0.1894097418547763, 0.22546597143527833]], "current-gradient-1": [[0.005531337563747581, -0.48356513834395515]]}, "fp-6": {"activation-0": [[9], [0]], "bias-0": [[0.0], [0.0]], "activation-1": [[1.1550761185177847], [-0.5912309060147406]], "bias-1": [[0.015576660091460193], [-0.022892442903244284]], "activation-2": [[0.2898645948890396]], "bias-2": [[0.034698291930658445]], "weights-0": [[0.12661105093625827, -0.27060976119453806], [-0.6543796241382401, 1.0109978895043956]], "weights-1": [[-0.9131536120198354, -0.20976892966909064]]}, "bp-6": {"err-output": [[0.2898645948890396]], "err-0": [[0.0], [0.0]], "err-1": [[-0.2646909018195928], [-0.0]], "err-2": [[0.2898645948890396]], "current-gradient-0": [[0.02858800750813384, 0.17101358177001696], [0.1894097418547763, 0.22546597143527833]], "current-gradient-1": [[0.04738329645876782, -0.5049872517261855]]}, "fp-7": {"activation-0": [[0], [5]], "bias-0": [[0.0], [0.0]], "activation-1": [[-0.133747214588123], [5.032097004618733]], "bias-1": [[0.015576660091460193], [-0.022892442903244284]], "activation-2": [[0.2893079424472297]], "bias-2": [[0.034698291930658445]], "weights-0": [[0.12661105093625827, -0.27060976119453806], [-0.6543796241382401, 1.0109978895043956]], "weights-1": [[-0.9131536120198354, -0.20976892966909064]]}, "bp-7": {"err-output": [[0.2893079424472297]], "err-0": [[0.0], [0.0]], "err-1": [[-0.026418259263171446], [-0.060687817431922246]], "err-2": [[0.2893079424472297]], "current-gradient-0": [[0.02858800750813384, 0.15450216973053482], [0.1894097418547763, 0.1875360855403269]], "current-gradient-1": [[0.042546530026200576, -0.32300904790104634]]}}, "update-6": {"bias-gradient-1": [[-0.042453259454408004], [0.018520844247747734]], "bias-gradient-2": [[-0.032971662945200264]], "weights-gradient-0": [[0.02858800750813384, 0.15450216973053482], [0.1894097418547763, 0.1875360855403269]], "weights-gradient-1": [[0.042546530026200576, -0.32300904790104634]], "weights-0": [[0.12518165056085157, -0.2783348696810648], [-0.6638501112309789, 1.0016210852273792]], "weights-1": [[-0.9152809385211453, -0.19361847727403833]], "bias-0": [[0.0], [0.0]], "bias-1": [[0.017699323064180594], [-0.02381848511563167]], "bias-2": [[0.03634687507791846]]}, "batch-7": {"fp-0": {"activation-0": [[2], [6]], "bias-0": [[0.0], [0.0]], "activation-1": [[-0.1401946593900505], [4.658207803786686]], "bias-1": [[0.017699323064180594], [-0.02381848511563167]], "activation-2": [[0.3236056263144546]], "bias-2": [[0.03634687507791846]], "weights-0": [[0.12518165056085157, -0.2783348696810648], [-0.6638501112309789, 1.0016210852273792]], "weights-1": [[-0.9152809385211453, -0.19361847727403833]]}, "bp-0": {"err-output": [[-0.6763943736855453]], "err-0": [[0.0], [0.0]], "err-1": [[0.06190908771573283], [0.13096244866972215]], "err-2": [[-0.6763943736855453]], "current-gradient-0": [[0.015477271928933207, 0.04643181578679962], [0.03274061216743054, 0.0982218365022916]], "current-gradient-1": [[0.011853359854023944, -0.3938481937424269]]}, "fp-1": {"activation-0": [[4], [9]], "bias-0": [[0.0], [0.0]], "activation-1": [[-0.19865879018219965], [6.335370837006866]], "bias-1": [[0.017699323064180594], [-0.02381848511563167]], "activation-2": [[0.267279503272073]], "bias-2": [[0.03634687507791846]], "weights-0": [[0.12518165056085157, -0.2783348696810648], [-0.6638501112309789, 1.0016210852273792]], "weights-1": [[-0.9152809385211453, -0.19361847727403833]]}, "bp-1": {"err-output": [[-0.732720496727927]], "err-0": [[0.0], [0.0]], "err-1": [[0.06706451039188169], [0.1418682268439382]], "err-2": [[-0.732720496727927]], "current-gradient-0": [[0.04900952712487405, 0.12187938997766651], [0.10367472558939964, 0.2578235917017221]], "current-gradient-1": [[0.030048530781732738, -0.9741052020733387]]}, "fp-2": {"activation-0": [[9], [0]], "bias-0": [[0.0], [0.0]], "activation-1": [[1.1443341781118448], [-0.5998469486194442]], "bias-1": [[0.017699323064180594], [-0.02381848511563167]], "activation-2": [[0.2900998952292979]], "bias-2": [[0.03634687507791846]], "weights-0": [[0.12518165056085157, -0.2783348696810648], [-0.6638501112309789, 1.0016210852273792]], "weights-1": [[-0.9152809385211453, -0.19361847727403833]]}, "bp-2": {"err-output": [[0.29009989522929785]], "err-0": [[0.0], [0.0]], "err-1": [[-0.2655229043703577], [-0.0]], "err-2": [[0.29009989522929785]], "current-gradient-0": [[-0.24970374029177833, 0.12187938997766651], [0.10367472558939964, 0.2578235917017221]], "current-gradient-1": [[0.0715449339289266, -0.9958571441918531]]}, "fp-3": {"activation-0": [[2], [0]], "bias-0": [[0.0], [0.0]], "activation-1": [[0.2680626241858837], [-0.13515187075775895]], "bias-1": [[0.017699323064180594], [-0.02381848511563167]], "activation-2": [[0.4544174545045244]], "bias-2": [[0.03634687507791846]], "weights-0": [[0.12518165056085157, -0.2783348696810648], [-0.6638501112309789, 1.0016210852273792]], "weights-1": [[-0.9152809385211453, -0.19361847727403833]]}, "bp-3": {"err-output": [[0.4544174545045244]], "err-0": [[0.0], [0.0]], "err-1": [[-0.41591963423929096], [-0.0]], "err-2": [[0.4544174545045244]], "current-gradient-0": [[-0.3536836488516011, 0.12187938997766651], [0.10367472558939964, 0.2578235917017221]], "current-gradient-1": [[0.08677147584522063, -1.0035340653270113]]}, "fp-4": {"activation-0": [[9], [5]], "bias-0": [[0.0], [0.0]], "activation-1": [[-0.024734017029347934], [-0.0990364060057546]], "bias-1": [[0.017699323064180594], [-0.02381848511563167]], "activation-2": [[0.5195302402116219]], "bias-2": [[0.03634687507791846]], "weights-0": [[0.12518165056085157, -0.2783348696810648], [-0.6638501112309789, 1.0016210852273792]], "weights-1": [[-0.9152809385211453, -0.19361847727403833]]}, "bp-4": {"err-output": [[-0.4804697597883782]], "err-0": [[0.0], [0.0]], "err-1": [[0.04397648126701361], [0.009302782326644877]], "err-2": [[-0.4804697597883782]], "current-gradient-0": [[-0.3042101074262108, 0.14936469076955], [0.11414035570687513, 0.26363783065587515]], "current-gradient-1": [[0.08825696924780718, -0.9975860655515252]]}, "fp-5": {"activation-0": [[1], [9]], "bias-0": [[0.0], [0.0]], "activation-1": [[-0.23621328535045516], [8.326921170699803]], "bias-1": [[0.017699323064180594], [-0.02381848511563167]], "activation-2": [[0.20428948632290125]], "bias-2": [[0.03634687507791846]], "weights-0": [[0.12518165056085157, -0.2783348696810648], [-0.6638501112309789, 1.0016210852273792]], "weights-1": [[-0.9152809385211453, -0.19361847727403833]]}, "bp-5": {"err-output": [[-0.7957105136770987]], "err-0": [[0.0], [0.0]], "err-1": [[0.07282986657495176], [0.1540642580091027]], "err-2": [[-0.7957105136770987]], "current-gradient-0": [[-0.2951063741043418, 0.23129829066637073], [0.13339838795801295, 0.4369601209161157]], "current-gradient-1": [[0.1117516435757529, -1.8258134058123061]]}, "fp-6": {"activation-0": [[9], [2]], "bias-0": [[0.0], [0.0]], "activation-1": [[0.5876644387497152], [-0.39952273157396834]], "bias-1": [[0.017699323064180594], [-0.02381848511563167]], "activation-2": [[0.39551785504886094]], "bias-2": [[0.03634687507791846]], "weights-0": [[0.12518165056085157, -0.2783348696810648], [-0.6638501112309789, 1.0016210852273792]], "weights-1": [[-0.9152809385211453, -0.19361847727403833]]}, "bp-6": {"err-output": [[-0.604482144951139]], "err-0": [[0.0], [0.0]], "err-1": [[0.5532709849501536], [0.0]], "err-2": [[-0.604482144951139]], "current-gradient-0": [[0.327323483964581, 0.3696160369039091], [0.13339838795801295, 0.4369601209161157]], "current-gradient-1": [[0.06734756101988601, -1.7956253610949848]]}, "fp-7": {"activation-0": [[0], [7]], "bias-0": [[0.0], [0.0]], "activation-1": [[-0.19306447647032732], [6.987529111476023]], "bias-1": [[0.017699323064180594], [-0.02381848511563167]], "activation-2": [[0.24234613289557005]], "bias-2": [[0.03634687507791846]], "weights-0": [[0.12518165056085157, -0.2783348696810648], [-0.6638501112309789, 1.0016210852273792]], "weights-1": [[-0.9152809385211453, -0.19361847727403833]]}, "bp-7": {"err-output": [[0.24234613289557005]], "err-0": [[0.0], [0.0]], "err-1": [[-0.022181479596362758], [-0.046922689224492005]], "err-2": [[0.24234613289557005]], "current-gradient-0": [[0.327323483964581, 0.35020724225709166], [0.13339838795801295, 0.3959027678446852]], "current-gradient-1": [[0.06149900736087456, -1.5839502787623057]]}}, "update-7": {"bias-gradient-1": [[0.011928364086715262], [0.04865937832811449]], "bias-gradient-2": [[-0.28786422577508697]], "weights-gradient-0": [[0.327323483964581, 0.35020724225709166], [0.13339838795801295, 0.3959027678446852]], "weights-gradient-1": [[0.06149900736087456, -1.5839502787623057]], "weights-0": [[0.10881547636262251, -0.29584523179391936], [-0.6705200306288795, 0.981825946835145]], "weights-1": [[-0.9183558888891891, -0.11442096333592304]], "bias-0": [[0.0], [0.0]], "bias-1": [[0.01710290485984483], [-0.026251454032037394]], "bias-2": [[0.05074008636667281]]}, "batch-8": {"fp-0": {"activation-0": [[6], [1]], "bias-0": [[0.0], [0.0]], "activation-1": [[0.37415053124166053], [-0.30675456909701704]], "bias-1": [[0.01710290485984483], [-0.026251454032037394]], "activation-2": [[0.43591342016727885]], "bias-2": [[0.05074008636667281]], "weights-0": [[0.10881547636262251, -0.29584523179391936], [-0.6705200306288795, 0.981825946835145]], "weights-1": [[-0.9183558888891891, -0.11442096333592304]]}, "bp-0": {"err-output": [[-0.5640865798327211]], "err-0": [[0.0], [0.0]], "err-1": [[0.5180322324327411], [0.0]], "err-2": [[-0.5640865798327211]], "current-gradient-0": [[0.3885241743245558, 0.06475402905409264], [0.0, 0.0]], "current-gradient-1": [[-0.026381661688837998, 0.02162951696624956]]}, "fp-1": {"activation-0": [[0], [8]], "bias-0": [[0.0], [0.0]], "activation-1": [[-0.23496589494915102], [7.828356120649123]], "bias-1": [[0.01710290485984483], [-0.026251454032037394]], "activation-2": [[0.3476906763000601]], "bias-2": [[0.05074008636667281]], "weights-0": [[0.10881547636262251, -0.29584523179391936], [-0.6705200306288795, 0.981825946835145]], "weights-1": [[-0.9183558888891891, -0.11442096333592304]]}, "bp-1": {"err-output": [[0.3476906763000601]], "err-0": [[0.0], [0.0]], "err-1": [[-0.0319303780092025], [-0.039783102125171464]], "err-2": [[0.3476906763000601]], "current-gradient-0": [[0.3885241743245558, 0.032823651044890136], [0.0, -0.039783102125171464]], "current-gradient-1": [[-0.0365935930541279, 0.3618603212045256]]}, "fp-2": {"activation-0": [[1], [0]], "bias-0": [[0.0], [0.0]], "activation-1": [[0.12591838122246735], [-0.0696771484660917]], "bias-1": [[0.01710290485984483], [-0.026251454032037394]], "activation-2": [[0.48577252326383824]], "bias-2": [[0.05074008636667281]], "weights-0": [[0.10881547636262251, -0.29584523179391936], [-0.6705200306288795, 0.981825946835145]], "weights-1": [[-0.9183558888891891, -0.11442096333592304]]}, "bp-2": {"err-output": [[0.48577252326383824]], "err-0": [[0.0], [0.0]], "err-1": [[-0.44611205739990645], [-0.0]], "err-2": [[0.48577252326383824]], "current-gradient-0": [[0.3327601671495675, 0.032823651044890136], [0.0, -0.039783102125171464]], "current-gradient-1": [[-0.028947631832660914, 0.3576294156765003]]}, "fp-3": {"activation-0": [[0], [8]], "bias-0": [[0.0], [0.0]], "activation-1": [[-0.23496589494915102], [7.828356120649123]], "bias-1": [[0.01710290485984483], [-0.026251454032037394]], "activation-2": [[0.3476906763000601]], "bias-2": [[0.05074008636667281]], "weights-0": [[0.10881547636262251, -0.29584523179391936], [-0.6705200306288795, 0.981825946835145]], "weights-1": [[-0.9183558888891891, -0.11442096333592304]]}, "bp-3": {"err-output": [[0.3476906763000601]], "err-0": [[0.0], [0.0]], "err-1": [[-0.0319303780092025], [-0.039783102125171464]], "err-2": [[0.3476906763000601]], "current-gradient-0": [[0.3327601671495675, 0.0008932730356876334], [0.0, -0.07956620425034293]], "current-gradient-1": [[-0.03915956319795082, 0.6978602199147763]]}, "fp-4": {"activation-0": [[4], [4]], "bias-0": [[0.0], [0.0]], "activation-1": [[-0.07310161168653427], [1.2189722107930245]], "bias-1": [[0.01710290485984483], [-0.026251454032037394]], "activation-2": [[0.49459956184471976]], "bias-2": [[0.05074008636667281]], "weights-0": [[0.10881547636262251, -0.29584523179391936], [-0.6705200306288795, 0.981825946835145]], "weights-1": [[-0.9183558888891891, -0.11442096333592304]]}, "bp-4": {"err-output": [[-0.5054004381552802]], "err-0": [[0.0], [0.0]], "err-1": [[0.0464137468627078], [0.05782840500412476]], "err-2": [[-0.5054004381552802]], "current-gradient-0": [[0.35596704058092143, 0.024100146467041533], [0.02891420250206238, -0.05065200174828055]], "current-gradient-1": [[-0.03454136487592187, 0.6208515837355382]]}, "fp-5": {"activation-0": [[7], [7]], "bias-0": [[0.0], [0.0]], "activation-1": [[-0.1292105383159233], [2.1528899594118207]], "bias-1": [[0.01710290485984483], [-0.026251454032037394]], "activation-2": [[0.4807758817093073]], "bias-2": [[0.05074008636667281]], "weights-0": [[0.10881547636262251, -0.29584523179391936], [-0.6705200306288795, 0.981825946835145]], "weights-1": [[-0.9183558888891891, -0.11442096333592304]]}, "bp-5": {"err-output": [[-0.5192241182906927]], "err-0": [[0.0], [0.0]], "err-1": [[0.047683252668555456], [0.05941012380206632]], "err-2": [[-0.5192241182906927]], "current-gradient-0": [[0.39768988666590743, 0.06582299255202756], [0.08089806082887041, 0.0013318565785274752]], "current-gradient-1": [[-0.026155211397052985, 0.48112253486647716]]}, "fp-6": {"activation-0": [[5], [6]], "bias-0": [[0.0], [0.0]], "activation-1": [[-0.1213891104090559], [2.5121040738344345]], "bias-1": [[0.01710290485984483], [-0.026251454032037394]], "activation-2": [[0.46873612084822364]], "bias-2": [[0.05074008636667281]], "weights-0": [[0.10881547636262251, -0.29584523179391936], [-0.6705200306288795, 0.981825946835145]], "weights-1": [[-0.9183558888891891, -0.11442096333592304]]}, "bp-6": {"err-output": [[-0.5312638791517763]], "err-0": [[0.0], [0.0]], "err-1": [[0.04878893119731483], [0.06078772483812565]], "err-2": [[-0.5312638791517763]], "current-gradient-0": [[0.4281829686642292, 0.10241469095001368], [0.11889038885269894, 0.04692265020712171]], "current-gradient-1": [[-0.0180940051867157, 0.31429876547919444]]}, "fp-7": {"activation-0": [[8], [1]], "bias-0": [[0.0], [0.0]], "activation-1": [[0.5917814839669056], [-0.44085857522279287]], "bias-1": [[0.01710290485984483], [-0.026251454032037394]], "activation-2": [[0.3911972389584385]], "bias-2": [[0.05074008636667281]], "weights-0": [[0.10881547636262251, -0.29584523179391936], [-0.6705200306288795, 0.981825946835145]], "weights-1": [[-0.9183558888891891, -0.11442096333592304]]}, "bp-7": {"err-output": [[-0.6088027610415615]], "err-0": [[0.0], [0.0]], "err-1": [[0.5590976007745158], [0.0]], "err-2": [[-0.6088027610415615]], "current-gradient-0": [[0.987280569438745, 0.17230189104682814], [0.11889038885269894, 0.04692265020712171]], "current-gradient-1": [[-0.06312878035825628, 0.3478482552072551]]}}, "update-8": {"bias-gradient-1": [[0.08875536881469044], [0.012307506174246724]], "bias-gradient-2": [[-0.19345298757600918]], "weights-gradient-0": [[0.987280569438745, 0.17230189104682814], [0.11889038885269894, 0.04692265020712171]], "weights-gradient-1": [[-0.06312878035825628, 0.3478482552072551]], "weights-0": [[0.05945144789068526, -0.30446032634626075], [-0.6764645500715145, 0.9794798143247889]], "weights-1": [[-0.9151994498712762, -0.1318133760962858]], "bias-0": [[0.0], [0.0]], "bias-1": [[0.012665136419110306], [-0.02686682934074973]], "bias-2": [[0.06041273574547327]]}, "batch-9": {"fp-0": {"activation-0": [[7], [5]], "bias-0": [[0.0], [0.0]], "activation-1": [[-0.10934763600773967], [0.13528039178259282]], "bias-1": [[0.012665136419110306], [-0.02686682934074973]], "activation-2": [[0.5356036073454057]], "bias-2": [[0.06041273574547327]], "weights-0": [[0.05945144789068526, -0.30446032634626075], [-0.6764645500715145, 0.9794798143247889]], "weights-1": [[-0.9151994498712762, -0.1318133760962858]]}, "bp-0": {"err-output": [[-0.4643963926545943]], "err-0": [[0.0], [0.0]], "err-1": [[0.04250153230796899], [0.061213656362738456]], "err-2": [[-0.4643963926545943]], "current-gradient-0": [[0.03718884076947287, 0.02656345769248062], [0.05356194931739615, 0.038258535226711535]], "current-gradient-1": [[0.0063475809634127404, -0.007852965742592042]]}, "fp-1": {"activation-0": [[0], [6]], "bias-0": [[0.0], [0.0]], "activation-1": [[-0.1814096821658454], [5.850012056607984]], "bias-1": [[0.012665136419110306], [-0.02686682934074973]], "activation-2": [[0.36710164470958284]], "bias-2": [[0.06041273574547327]], "weights-0": [[0.05945144789068526, -0.30446032634626075], [-0.6764645500715145, 0.9794798143247889]], "weights-1": [[-0.9151994498712762, -0.1318133760962858]]}, "bp-1": {"err-output": [[0.36710164470958284]], "err-0": [[0.0], [0.0]], "err-1": [[-0.03359712232850509], [-0.04838890715966933]], "err-2": [[0.36710164470958284]], "current-gradient-0": [[0.03718884076947287, 0.0013656159461018016], [0.05356194931739615, 0.001966854856959535]], "current-gradient-1": [[-0.0019768931227528257, 0.260590665201368]]}, "fp-2": {"activation-0": [[7], [0]], "bias-0": [[0.0], [0.0]], "activation-1": [[0.42882527165390716], [-0.4762118679841352]], "bias-1": [[0.012665136419110306], [-0.02686682934074973]], "activation-2": [[0.4330846425634431]], "bias-2": [[0.06041273574547327]], "weights-0": [[0.05945144789068526, -0.30446032634626075], [-0.6764645500715145, 0.9794798143247889]], "weights-1": [[-0.9151994498712762, -0.1318133760962858]]}, "bp-2": {"err-output": [[0.4330846425634431]], "err-0": [[0.0], [0.0]], "err-1": [[-0.3963588266217614], [-0.0]], "err-2": [[0.4330846425634431]], "current-gradient-0": [[-0.30962513252456836, 0.0013656159461018016], [0.05356194931739615, 0.001966854856959535]], "current-gradient-1": [[0.021237811814297645, 0.23481065937257065]]}, "fp-3": {"activation-0": [[2], [7]], "bias-0": [[0.0], [0.0]], "activation-1": [[-0.1999654252223344], [5.4765627707897435]], "bias-1": [[0.012665136419110306], [-0.02686682934074973]], "activation-2": [[0.3826150730743139]], "bias-2": [[0.06041273574547327]], "weights-0": [[0.05945144789068526, -0.30446032634626075], [-0.6764645500715145, 0.9794798143247889]], "weights-1": [[-0.9151994498712762, -0.1318133760962858]]}, "bp-3": {"err-output": [[-0.6173849269256861]], "err-0": [[0.0], [0.0]], "err-1": [[0.056503034548120605], [0.08137959156903339]], "err-2": [[-0.6173849269256861]], "current-gradient-0": [[-0.2954993738875382, 0.05080577117570733], [0.0739068472096545, 0.07317399747986375]], "current-gradient-1": [[0.03666976674411698, -0.1878327538834242]]}, "fp-4": {"activation-0": [[2], [2]], "bias-0": [[0.0], [0.0]], "activation-1": [[-0.047735262049204065], [0.5791636991657991]], "bias-1": [[0.012665136419110306], [-0.02686682934074973]], "activation-2": [[0.5069391791360129]], "bias-2": [[0.06041273574547327]], "weights-0": [[0.05945144789068526, -0.30446032634626075], [-0.6764645500715145, 0.9794798143247889]], "weights-1": [[-0.9151994498712762, -0.1318133760962858]]}, "bp-4": {"err-output": [[-0.49306082086398706]], "err-0": [[0.0], [0.0]], "err-1": [[0.04512489920078008], [0.06499201141888812]], "err-2": [[-0.49306082086398706]], "current-gradient-0": [[-0.2842181490873432, 0.06208699597590235], [0.09015485006437653, 0.08942200033458578]], "current-gradient-1": [[0.039611815180384244, -0.22352811999908823]]}, "fp-5": {"activation-0": [[0], [7]], "bias-0": [[0.0], [0.0]], "activation-1": [[-0.2118557148004715], [6.829491870932773]], "bias-1": [[0.012665136419110306], [-0.02686682934074973]], "activation-2": [[0.3439105794948397]], "bias-2": [[0.06041273574547327]], "weights-0": [[0.05945144789068526, -0.30446032634626075], [-0.6764645500715145, 0.9794798143247889]], "weights-1": [[-0.9151994498712762, -0.1318133760962858]]}, "bp-5": {"err-output": [[0.3439105794948397]], "err-0": [[0.0], [0.0]], "err-1": [[-0.031474677315858915], [-0.0453320145584449]], "err-2": [[0.3439105794948397]], "current-gradient-0": [[-0.2842181490873432, 0.0345466533245258], [0.09015485006437653, 0.04975648759594649]], "current-gradient-1": [[0.03050438747459379, 0.07006369337438517]]}, "fp-6": {"activation-0": [[9], [6]], "bias-0": [[0.0], [0.0]], "activation-1": [[-0.1279033790642287], [-0.023816889403564686]], "bias-1": [[0.012665136419110306], [-0.02686682934074973]], "activation-2": [[0.5450299668197102]], "bias-2": [[0.06041273574547327]], "weights-0": [[0.05945144789068526, -0.30446032634626075], [-0.6764645500715145, 0.9794798143247889]], "weights-1": [[-0.9151994498712762, -0.1318133760962858]]}, "bp-6": {"err-output": [[-0.45497003318028983]], "err-0": [[0.0], [0.0]], "err-1": [[0.041638832407451754], [0.005997113609613317]], "err-2": [[-0.45497003318028983]], "current-gradient-0": [[-0.23737446262896, 0.0657757776301146], [0.0969016028751915, 0.05425432280315648]], "current-gradient-1": [[0.0377784130516842, 0.07141818974465906]]}, "fp-7": {"activation-0": [[0], [5]], "bias-0": [[0.0], [0.0]], "activation-1": [[-0.15096364953121935], [4.870532242283194]], "bias-1": [[0.012665136419110306], [-0.02686682934074973]], "activation-2": [[0.39092475561453394]], "bias-2": [[0.06041273574547327]], "weights-0": [[0.05945144789068526, -0.30446032634626075], [-0.6764645500715145, 0.9794798143247889]], "weights-1": [[-0.9151994498712762, -0.1318133760962858]]}, "bp-7": {"err-output": [[0.39092475561453394]], "err-0": [[0.0], [0.0]], "err-1": [[-0.03577741212794846], [-0.05152911183716717]], "err-2": [[0.39092475561453394]], "current-gradient-0": [[-0.23737446262896, 0.04341489505014682], [0.0969016028751915, 0.022048627904926996]], "current-gradient-1": [[0.030401484576725445, 0.3094196430605673]]}}, "update-9": {"bias-gradient-1": [[-0.038929967491219054], [0.008541542425623987]], "bias-gradient-2": [[-0.06184881890526971]], "weights-gradient-0": [[-0.23737446262896, 0.04341489505014682], [0.0969016028751915, 0.022048627904926996]], "weights-gradient-1": [[0.030401484576725445, 0.3094196430605673]], "weights-0": [[0.07132017102213326, -0.3066310710987681], [-0.6813096302152741, 0.9783773829295426]], "weights-1": [[-0.9167195241001125, -0.14728435824931416]], "bias-0": [[0.0], [0.0]], "bias-1": [[0.014611634793671259], [-0.027293906462030927]], "bias-2": [[0.06350517669073676]]}, "batch-10": {"fp-0": {"activation-0": [[0], [6]], "bias-0": [[0.0], [0.0]], "activation-1": [[-0.18251747917989372], [5.842970391115225]], "bias-1": [[0.014611634793671259], [-0.027293906462030927]], "activation-2": [[0.34756594980504535]], "bias-2": [[0.06350517669073676]], "weights-0": [[0.07132017102213326, -0.3066310710987681], [-0.6813096302152741, 0.9783773829295426]], "weights-1": [[-0.9167195241001125, -0.14728435824931416]]}, "bp-0": {"err-output": [[0.34756594980504535]], "err-0": [[0.0], [0.0]], "err-1": [[-0.03186204920986848], [-0.051191027866349444]], "err-2": [[0.34756594980504535]], "current-gradient-0": [[0.0, -0.02389653690740136], [0.0, -0.038393270899762084]], "current-gradient-1": [[-0.007929607625897794, 0.25385219420884003]]}, "fp-1": {"activation-0": [[2], [9]], "bias-0": [[0.0], [0.0]], "activation-1": [[-0.2602427663050975], [7.415483279473303]], "bias-1": [[0.014611634793671259], [-0.027293906462030927]], "activation-2": [[0.3121450734547399]], "bias-2": [[0.06350517669073676]], "weights-0": [[0.07132017102213326, -0.3066310710987681], [-0.6813096302152741, 0.9783773829295426]], "weights-1": [[-0.9167195241001125, -0.14728435824931416]]}, "bp-1": {"err-output": [[-0.68785492654526]], "err-0": [[0.0], [0.0]], "err-1": [[0.06305700409124886], [0.10131027142484775]], "err-2": [[-0.68785492654526]], "current-gradient-0": [[0.015764251022812214, 0.0470425926952536], [0.025327567856211937, 0.07558078445319164]], "current-gradient-1": [[0.014446550986693223, -0.38374489410362406]]}, "fp-2": {"activation-0": [[3], [0]], "bias-0": [[0.0], [0.0]], "activation-1": [[0.22857214786007102], [-0.20712227971078534]], "bias-1": [[0.014611634793671259], [-0.027293906462030927]], "activation-2": [[0.4711507029642543]], "bias-2": [[0.06350517669073676]], "weights-0": [[0.07132017102213326, -0.3066310710987681], [-0.6813096302152741, 0.9783773829295426]], "weights-1": [[-0.9167195241001125, -0.14728435824931416]]}, "bp-2": {"err-output": [[0.4711507029642543]], "err-0": [[0.0], [0.0]], "err-1": [[-0.43191304820082466], [-0.0]], "err-2": [[0.4711507029642543]], "current-gradient-0": [[-0.14620314205249704, 0.0470425926952536], [0.025327567856211937, 0.07558078445319164]], "current-gradient-1": [[0.027908042004483463, -0.395943120064286]]}, "fp-3": {"activation-0": [[6], [9]], "bias-0": [[0.0], [0.0]], "activation-1": [[-0.23171469789624421], [4.690244758612208]], "bias-1": [[0.014611634793671259], [-0.027293906462030927]], "activation-2": [[0.39774325664876936]], "bias-2": [[0.06350517669073676]], "weights-0": [[0.07132017102213326, -0.3066310710987681], [-0.6813096302152741, 0.9783773829295426]], "weights-1": [[-0.9167195241001125, -0.14728435824931416]]}, "bp-3": {"err-output": [[-0.6022567433512307]], "err-0": [[0.0], [0.0]], "err-1": [[0.05521005151510238], [0.08870299794580791]], "err-2": [[-0.6022567433512307]], "current-gradient-0": [[-0.10479560341617025, 0.10915390064974378], [0.09185481631556786, 0.17537165714222552]], "current-gradient-1": [[0.04535200942218425, -0.749034561794532]]}, "fp-4": {"activation-0": [[8], [0]], "bias-0": [[0.0], [0.0]], "activation-1": [[0.5851730029707373], [-0.5477770948184224]], "bias-1": [[0.014611634793671259], [-0.027293906462030927]], "activation-2": [[0.40317449107628456]], "bias-2": [[0.06350517669073676]], "weights-0": [[0.07132017102213326, -0.3066310710987681], [-0.6813096302152741, 0.9783773829295426]], "weights-1": [[-0.9167195241001125, -0.14728435824931416]]}, "bp-4": {"err-output": [[0.40317449107628456]], "err-0": [[0.0], [0.0]], "err-1": [[-0.36959792758875665], [-0.0]], "err-2": [[0.40317449107628456]], "current-gradient-0": [[-0.47439353100492687, 0.10915390064974378], [0.09185481631556786, 0.17537165714222552]], "current-gradient-1": [[0.07484286288022277, -0.7766407807228649]]}, "fp-5": {"activation-0": [[8], [0]], "bias-0": [[0.0], [0.0]], "activation-1": [[0.5851730029707373], [-0.5477770948184224]], "bias-1": [[0.014611634793671259], [-0.027293906462030927]], "activation-2": [[0.40317449107628456]], "bias-2": [[0.06350517669073676]], "weights-0": [[0.07132017102213326, -0.3066310710987681], [-0.6813096302152741, 0.9783773829295426]], "weights-1": [[-0.9167195241001125, -0.14728435824931416]]}, "bp-5": {"err-output": [[0.40317449107628456]], "err-0": [[0.0], [0.0]], "err-1": [[-0.36959792758875665], [-0.0]], "err-2": [[0.40317449107628456]], "current-gradient-0": [[-0.8439914585936835, 0.10915390064974378], [0.09185481631556786, 0.17537165714222552]], "current-gradient-1": [[0.10433371633826129, -0.8042469996511978]]}, "fp-6": {"activation-0": [[0], [8]], "bias-0": [[0.0], [0.0]], "activation-1": [[-0.24384369339964734], [7.79972515697431]], "bias-1": [[0.014611634793671259], [-0.027293906462030927]], "activation-2": [[0.2969767599991205]], "bias-2": [[0.06350517669073676]], "weights-0": [[0.07132017102213326, -0.3066310710987681], [-0.6813096302152741, 0.9783773829295426]], "weights-1": [[-0.9167195241001125, -0.14728435824931416]]}, "bp-6": {"err-output": [[0.2969767599991205]], "err-0": [[0.0], [0.0]], "err-1": [[-0.02722443940951871], [-0.04374003151143105]], "err-2": [[0.2969767599991205]], "current-gradient-0": [[-0.8439914585936835, 0.08192946124022507], [0.09185481631556786, 0.13163162563079447]], "current-gradient-1": [[0.09528172758675552, -0.514704861400965]]}, "fp-7": {"activation-0": [[6], [8]], "bias-0": [[0.0], [0.0]], "activation-1": [[-0.2010515907863674], [3.711867375682665]], "bias-1": [[0.014611634793671259], [-0.027293906462030927]], "activation-2": [[0.4258296100512462]], "bias-2": [[0.06350517669073676]], "weights-0": [[0.07132017102213326, -0.3066310710987681], [-0.6813096302152741, 0.9783773829295426]], "weights-1": [[-0.9167195241001125, -0.14728435824931416]]}, "bp-7": {"err-output": [[-0.5741703899487538]], "err-0": [[0.0], [0.0]], "err-1": [[0.05263532066261976], [0.08456631740936066]], "err-2": [[-0.5741703899487538]], "current-gradient-0": [[-0.8045149680967187, 0.13456478190284482], [0.15527955437258834, 0.21619794304015513]], "current-gradient-1": [[0.10971146137195875, -0.7811104037176867]]}}, "update-10": {"bias-gradient-1": [[-0.13241162696609426], [0.02245606592527948]], "bias-gradient-2": [[0.0072200418844680925]], "weights-gradient-0": [[-0.8045149680967187, 0.13456478190284482], [0.15527955437258834, 0.21619794304015513]], "weights-gradient-1": [[0.10971146137195875, -0.7811104037176867]], "weights-0": [[0.1115459194269692, -0.31335931019391033], [-0.6890736079339036, 0.9675674857775348]], "weights-1": [[-0.9222050971687105, -0.10822883806342981]], "bias-0": [[0.0], [0.0]], "bias-1": [[0.02123221614197597], [-0.0284167097582949]], "bias-2": [[0.06314417459651335]]}, "batch-11": {"fp-0": {"activation-0": [[8], [0]], "bias-0": [[0.0], [0.0]], "activation-1": [[0.9135995715577296], [-0.5541005573229524]], "bias-1": [[0.02123221614197597], [-0.0284167097582949]], "activation-2": [[0.3275224011260018]], "bias-2": [[0.06314417459651335]], "weights-0": [[0.1115459194269692, -0.31335931019391033], [-0.6890736079339036, 0.9675674857775348]], "weights-1": [[-0.9222050971687105, -0.10822883806342981]]}, "bp-0": {"err-output": [[0.3275224011260018]], "err-0": [[0.0], [0.0]], "err-1": [[-0.30204282775533386], [-0.0]], "err-2": [[0.3275224011260018]], "current-gradient-0": [[-0.30204282775533386, 0.0], [0.0, 0.0]], "current-gradient-1": [[0.037403040668034265, -0.022685043124958643]]}, "fp-1": {"activation-0": [[5], [3]], "bias-0": [[0.0], [0.0]], "activation-1": [[-0.036111611730490906], [-0.057108229209520855]], "bias-1": [[0.02123221614197597], [-0.0284167097582949]], "activation-2": [[0.5256343158866693]], "bias-2": [[0.06314417459651335]], "weights-0": [[0.1115459194269692, -0.31335931019391033], [-0.6890736079339036, 0.9675674857775348]], "weights-1": [[-0.9222050971687105, -0.10822883806342981]]}, "bp-1": {"err-output": [[-0.47436568411333063]], "err-0": [[0.0], [0.0]], "err-1": [[0.04374624518112359], [0.005134004680874976]], "err-2": [[-0.47436568411333063]], "current-gradient-0": [[-0.27470142451713164, 0.01640484194292135], [0.00320875292554686, 0.0019252517553281162]], "current-gradient-1": [[0.039544304343405424, -0.019298770097774236]]}, "fp-2": {"activation-0": [[6], [4]], "bias-0": [[0.0], [0.0]], "activation-1": [[-0.05629295080718502], [-0.029258841425157722]], "bias-1": [[0.02123221614197597], [-0.0284167097582949]], "activation-2": [[0.5295217402915309]], "bias-2": [[0.06314417459651335]], "weights-0": [[0.1115459194269692, -0.31335931019391033], [-0.6890736079339036, 0.9675674857775348]], "weights-1": [[-0.9222050971687105, -0.10822883806342981]]}, "bp-2": {"err-output": [[-0.4704782597084691]], "err-0": [[0.0], [0.0]], "err-1": [[0.04338774492102146], [0.005091931538235218]], "err-2": [[-0.4704782597084691]], "current-gradient-0": [[-0.24216061582636556, 0.03809871440343208], [0.007027701579223273, 0.004471217524445725]], "current-gradient-1": [[0.04285488053460779, -0.017578063998424952]]}, "fp-3": {"activation-0": [[4], [2]], "bias-0": [[0.0], [0.0]], "activation-1": [[-0.01593027265379679], [-0.08495761699388397]], "bias-1": [[0.02123221614197597], [-0.0284167097582949]], "activation-2": [[0.5217437817284728]], "bias-2": [[0.06314417459651335]], "weights-0": [[0.1115459194269692, -0.31335931019391033], [-0.6890736079339036, 0.9675674857775348]], "weights-1": [[-0.9222050971687105, -0.10822883806342981]]}, "bp-3": {"err-output": [[-0.4782562182715272]], "err-0": [[0.0], [0.0]], "err-1": [[0.044105032224263374], [0.005176111480013746]], "err-2": [[-0.4782562182715272]], "current-gradient-0": [[-0.22010809971423387, 0.04912497245949792], [0.009615757319230147, 0.005765245394449161]], "current-gradient-1": [[0.04380722452903768, -0.012499125421317979]]}, "fp-4": {"activation-0": [[9], [5]], "bias-0": [[0.0], [0.0]], "activation-1": [[-0.05416510599848528], [-0.13922417522757533]], "bias-1": [[0.02123221614197597], [-0.0284167097582949]], "activation-2": [[0.5319971090709238]], "bias-2": [[0.06314417459651335]], "weights-0": [[0.1115459194269692, -0.31335931019391033], [-0.6890736079339036, 0.9675674857775348]], "weights-1": [[-0.9222050971687105, -0.10822883806342981]]}, "bp-4": {"err-output": [[-0.4680028909290762]], "err-0": [[0.0], [0.0]], "err-1": [[0.04315946515044861], [0.005065140909558]], "err-2": [[-0.4680028909290762]], "current-gradient-0": [[-0.17155370141997917, 0.0760996381785283], [0.015314040842482897, 0.008930958462922911]], "current-gradient-1": [[0.046975902803384054, -0.0043544608596027875]]}, "fp-5": {"activation-0": [[3], [8]], "bias-0": [[0.0], [0.0]], "activation-1": [[-0.21510045071283992], [5.644902352660273]], "bias-1": [[0.02123221614197597], [-0.0284167097582949]], "activation-2": [[0.4135205747910965]], "bias-2": [[0.06314417459651335]], "weights-0": [[0.1115459194269692, -0.31335931019391033], [-0.6890736079339036, 0.9675674857775348]], "weights-1": [[-0.9222050971687105, -0.10822883806342981]]}, "bp-5": {"err-output": [[-0.5864794252089035]], "err-0": [[0.0], [0.0]], "err-1": [[0.05408543153122263], [0.06347398673846781]], "err-2": [[-0.5864794252089035]], "current-gradient-0": [[-0.15127166459577068, 0.13018506970975094], [0.039116785869408324, 0.07240494520139072]], "current-gradient-1": [[0.06274490139041436, -0.41818184675317577]]}, "fp-6": {"activation-0": [[0], [9]], "bias-0": [[0.0], [0.0]], "activation-1": [[-0.2799001575603217], [8.67969066223952]], "bias-1": [[0.02123221614197597], [-0.0284167097582949]], "activation-2": [[0.35020839583836416]], "bias-2": [[0.06314417459651335]], "weights-0": [[0.1115459194269692, -0.31335931019391033], [-0.6890736079339036, 0.9675674857775348]], "weights-1": [[-0.9222050971687105, -0.10822883806342981]]}, "bp-6": {"err-output": [[0.3502083958383642]], "err-0": [[0.0], [0.0]], "err-1": [[-0.03229639677134169], [-0.03790264776164385]], "err-2": [[0.3502083958383642]], "current-gradient-0": [[-0.15127166459577068, 0.09385162334199154], [0.039116785869408324, 0.029764466469541388]], "current-gradient-1": [[0.05049197824365115, -0.03821927885365939]]}, "fp-7": {"activation-0": [[0], [8]], "bias-0": [[0.0], [0.0]], "activation-1": [[-0.2485642265409307], [7.712123176461984]], "bias-1": [[0.02123221614197597], [-0.0284167097582949]], "activation-2": [[0.36765206459045047]], "bias-2": [[0.06314417459651335]], "weights-0": [[0.1115459194269692, -0.31335931019391033], [-0.6890736079339036, 0.9675674857775348]], "weights-1": [[-0.9222050971687105, -0.10822883806342981]]}, "bp-7": {"err-output": [[0.36765206459045047]], "err-0": [[0.0], [0.0]], "err-1": [[-0.03390506079499134], [-0.0397905557622455]], "err-2": [[0.36765206459045047]], "current-gradient-0": [[-0.15127166459577068, 0.059946562547000204], [0.039116785869408324, -0.010026089292704113]], "current-gradient-1": [[0.039068834359763445, 0.31620297217160453]]}}, "update-11": {"bias-gradient-1": [[-0.017470045789198405], [0.0007809964779075494]], "bias-gradient-2": [[-0.17902495208456126]], "weights-gradient-0": [[-0.15127166459577068, 0.059946562547000204], [0.039116785869408324, -0.010026089292704113]], "weights-gradient-1": [[0.039068834359763445, 0.31620297217160453]], "weights-0": [[0.11910950265675774, -0.3163566383212603], [-0.691029447227374, 0.9680687902421701]], "weights-1": [[-0.9241585388866986, -0.12403898667201003]], "bias-0": [[0.0], [0.0]], "bias-1": [[0.02210571843143589], [-0.02845575958219028]], "bias-2": [[0.07209542220074142]]}, "batch-12": {"fp-0": {"activation-0": [[6], [9]], "bias-0": [[0.0], [0.0]], "activation-1": [[-0.21104470105193604], [4.5379866692330975]], "bias-1": [[0.02210571843143589], [-0.02845575958219028]], "activation-2": [[0.4265960040634104]], "bias-2": [[0.07209542220074142]], "weights-0": [[0.11910950265675774, -0.3163566383212603], [-0.691029447227374, 0.9680687902421701]], "weights-1": [[-0.9241585388866986, -0.12403898667201003]]}, "bp-0": {"err-output": [[-0.5734039959365895]], "err-0": [[0.0], [0.0]], "err-1": [[0.05299161990765531], [0.07112445060965593]], "err-2": [[-0.5734039959365895]], "current-gradient-0": [[0.03974371493074148, 0.059615572396112225], [0.05334333795724194, 0.08001500693586291]], "current-gradient-1": [[0.015126734363052886, -0.32526246120565405]]}, "fp-1": {"activation-0": [[7], [9]], "bias-0": [[0.0], [0.0]], "activation-1": [[-0.19913375078626028], [3.8469572220057233]], "bias-1": [[0.02210571843143589], [-0.02845575958219028]], "activation-2": [[0.44496239450916597]], "bias-2": [[0.07209542220074142]], "weights-0": [[0.11910950265675774, -0.3163566383212603], [-0.691029447227374, 0.9680687902421701]], "weights-1": [[-0.9241585388866986, -0.12403898667201003]]}, "bp-1": {"err-output": [[-0.555037605490834]], "err-0": [[0.0], [0.0]], "err-1": [[0.0512942742517581], [0.06884630214994193]], "err-2": [[-0.555037605490834]], "current-gradient-0": [[0.08462620490102982, 0.11732163092934009], [0.11358385233844114, 0.15746709685454757]], "current-gradient-1": [[0.028942574389154686, -0.59216320182162]]}, "fp-2": {"activation-0": [[2], [2]], "bias-0": [[0.0], [0.0]], "activation-1": [[-0.03723885528975693], [0.5256229264474018]], "bias-1": [[0.02210571843143589], [-0.02845575958219028]], "activation-2": [[0.5103266046174025]], "bias-2": [[0.07209542220074142]], "weights-0": [[0.11910950265675774, -0.3163566383212603], [-0.691029447227374, 0.9680687902421701]], "weights-1": [[-0.9241585388866986, -0.12403898667201003]]}, "bp-2": {"err-output": [[-0.48967339538259747]], "err-0": [[0.0], [0.0]], "err-1": [[0.045253584960847], [0.060738591763499904]], "err-2": [[-0.48967339538259747]], "current-gradient-0": [[0.09593960114124156, 0.12863502716955183], [0.1287685002793161, 0.17265174479542256]], "current-gradient-1": [[0.031221933977891747, -0.6243361472071746]]}, "fp-3": {"activation-0": [[2], [9]], "bias-0": [[0.0], [0.0]], "activation-1": [[-0.2586885021146392], [7.302104458142593]], "bias-1": [[0.02210571843143589], [-0.02845575958219028]], "activation-2": [[0.3555844456444547]], "bias-2": [[0.07209542220074142]], "weights-0": [[0.11910950265675774, -0.3163566383212603], [-0.691029447227374, 0.9680687902421701]], "weights-1": [[-0.9241585388866986, -0.12403898667201003]]}, "bp-3": {"err-output": [[-0.6444155543555453]], "err-0": [[0.0], [0.0]], "err-1": [[0.059554213714908266], [0.07993265235794345]], "err-2": [[-0.6444155543555453]], "current-gradient-0": [[0.11082815456996863, 0.19563351759882364], [0.14875166336880197, 0.26257597869810895]], "current-gradient-1": [[0.0520597957898431, -1.2125348587516818]]}, "fp-4": {"activation-0": [[2], [0]], "bias-0": [[0.0], [0.0]], "activation-1": [[0.26032472374495136], [-0.14105146540369384]], "bias-1": [[0.02210571843143589], [-0.02845575958219028]], "activation-2": [[0.46232404747457473]], "bias-2": [[0.07209542220074142]], "weights-0": [[0.11910950265675774, -0.3163566383212603], [-0.691029447227374, 0.9680687902421701]], "weights-1": [[-0.9241585388866986, -0.12403898667201003]]}, "bp-4": {"err-output": [[0.46232404747457473]], "err-0": [[0.0], [0.0]], "err-1": [[-0.4272607162062877], [-0.0]], "err-2": [[0.46232404747457473]], "current-gradient-0": [[0.0040129755183967025, 0.19563351759882364], [0.14875166336880197, 0.26257597869810895]], "current-gradient-1": [[0.0671040932822764, -1.2206862943001386]]}, "fp-5": {"activation-0": [[3], [0]], "bias-0": [[0.0], [0.0]], "activation-1": [[0.3794342264017091], [-0.2101544101264312]], "bias-1": [[0.02210571843143589], [-0.02845575958219028]], "activation-2": [[0.43720958414224637]], "bias-2": [[0.07209542220074142]], "weights-0": [[0.11910950265675774, -0.3163566383212603], [-0.691029447227374, 0.9680687902421701]], "weights-1": [[-0.9241585388866986, -0.12403898667201003]]}, "bp-5": {"err-output": [[0.43720958414224637]], "err-0": [[0.0], [0.0]], "err-1": [[-0.4040509704681595], [-0.0]], "err-2": [[0.43720958414224637]], "current-gradient-0": [[-0.14750613840716315, 0.19563351759882364], [0.14875166336880197, 0.26257597869810895]], "current-gradient-1": [[0.08784062832407967, -1.2321714845822682]]}, "fp-6": {"activation-0": [[0], [4]], "bias-0": [[0.0], [0.0]], "activation-1": [[-0.12433208348536054], [3.84381940138649]], "bias-1": [[0.02210571843143589], [-0.02845575958219028]], "activation-2": [[0.42805638477972563]], "bias-2": [[0.07209542220074142]], "weights-0": [[0.11910950265675774, -0.3163566383212603], [-0.691029447227374, 0.9680687902421701]], "weights-1": [[-0.9241585388866986, -0.12403898667201003]]}, "bp-6": {"err-output": [[0.42805638477972563]], "err-0": [[0.0], [0.0]], "err-1": [[-0.03955919631191537], [-0.053095680206561184]], "err-2": [[0.42805638477972563]], "current-gradient-0": [[-0.14750613840716315, 0.17585391944286594], [0.14875166336880197, 0.23602813859482835]], "current-gradient-1": [[0.08118798555297037, -1.0265000549943095]]}, "fp-7": {"activation-0": [[1], [6]], "bias-0": [[0.0], [0.0]], "activation-1": [[-0.17569246088393684], [5.088927534643457]], "bias-1": [[0.02210571843143589], [-0.02845575958219028]], "activation-2": [[0.4020904789746209]], "bias-2": [[0.07209542220074142]], "weights-0": [[0.11910950265675774, -0.3163566383212603], [-0.691029447227374, 0.9680687902421701]], "weights-1": [[-0.9241585388866986, -0.12403898667201003]]}, "bp-7": {"err-output": [[-0.5979095210253791]], "err-0": [[0.0], [0.0]], "err-1": [[0.05525631893372601], [0.0741640911095349]], "err-2": [[-0.5979095210253791]], "current-gradient-0": [[-0.1405990985404474, 0.21729615864316043], [0.15802217475749383, 0.29165120692697954]], "current-gradient-1": [[0.09431900994483097, -1.406839833090751]]}}, "update-12": {"bias-gradient-1": [[-0.07581510890218349], [0.037713800973001865]], "bias-gradient-2": [[-0.19160625697429987]], "weights-gradient-0": [[-0.1405990985404474, 0.21729615864316043], [0.15802217475749383, 0.29165120692697954]], "weights-gradient-1": [[0.09431900994483097, -1.406839833090751]], "weights-0": [[0.12613945758378012, -0.3272214462534183], [-0.6989305559652487, 0.9534862298958211]], "weights-1": [[-0.9288744893839401, -0.05369699501747248]], "bias-0": [[0.0], [0.0]], "bias-1": [[0.025896473876545065], [-0.030341449630840372]], "bias-2": [[0.08167573504945641]]}, "batch-13": {"fp-0": {"activation-0": [[7], [9]], "bias-0": [[0.0], [0.0]], "activation-1": [[-0.20361203393177593], [3.658520727674809]], "bias-1": [[0.025896473876545065], [-0.030341449630840372]], "activation-2": [[0.518579988216464]], "bias-2": [[0.08167573504945641]], "weights-0": [[0.12613945758378012, -0.3272214462534183], [-0.6989305559652487, 0.9534862298958211]], "weights-1": [[-0.9288744893839401, -0.05369699501747248]]}, "bp-0": {"err-output": [[-0.481420011783536]], "err-0": [[0.0], [0.0]], "err-1": [[0.04471787676246425], [0.025850807974052075]], "err-2": [[-0.481420011783536]], "current-gradient-0": [[0.03912814216715622, 0.05030761135777228], [0.022619456977295567, 0.029082158970808583]], "current-gradient-1": [[0.012252863471838163, -0.22016063647843967]]}, "fp-1": {"activation-0": [[1], [6]], "bias-0": [[0.0], [0.0]], "activation-1": [[-0.18112927460601846], [4.991645373778837]], "bias-1": [[0.025896473876545065], [-0.030341449630840372]], "activation-2": [[0.49547155901110845]], "bias-2": [[0.08167573504945641]], "weights-0": [[0.12613945758378012, -0.3272214462534183], [-0.6989305559652487, 0.9534862298958211]], "weights-1": [[-0.9288744893839401, -0.05369699501747248]]}, "bp-1": {"err-output": [[-0.5045284409888915]], "err-0": [[0.0], [0.0]], "err-1": [[0.0468643598003232], [0.027091661181953663]], "err-2": [[-0.5045284409888915]], "current-gradient-0": [[0.04498618714219662, 0.08545588120801467], [0.026005914625039775, 0.04940090485727383]], "current-gradient-1": [[0.023675972288641076, -0.5349640187786958]]}, "fp-2": {"activation-0": [[1], [9]], "bias-0": [[0.0], [0.0]], "activation-1": [[-0.279295708482044], [7.852104063466301]], "bias-1": [[0.025896473876545065], [-0.030341449630840372]], "activation-2": [[0.4798788724330372]], "bias-2": [[0.08167573504945641]], "weights-0": [[0.12613945758378012, -0.3272214462534183], [-0.6989305559652487, 0.9534862298958211]], "weights-1": [[-0.9288744893839401, -0.05369699501747248]]}, "bp-2": {"err-output": [[-0.5201211275669628]], "err-0": [[0.0], [0.0]], "err-1": [[0.04831272467865618], [0.02792894159544537]], "err-2": [[-0.5201211275669628]], "current-gradient-0": [[0.05102527772702864, 0.13980769647150287], [0.029497032324470446, 0.08082096415214987]], "current-gradient-1": [[0.041834422141177885, -1.0454696711865987]]}, "fp-3": {"activation-0": [[4], [2]], "bias-0": [[0.0], [0.0]], "activation-1": [[-0.01239885882951711], [-0.09190912137001929]], "bias-1": [[0.025896473876545065], [-0.030341449630840372]], "activation-2": [[0.5245123244465818]], "bias-2": [[0.08167573504945641]], "weights-0": [[0.12613945758378012, -0.3272214462534183], [-0.6989305559652487, 0.9534862298958211]], "weights-1": [[-0.9288744893839401, -0.05369699501747248]]}, "bp-3": {"err-output": [[-0.4754876755534182]], "err-0": [[0.0], [0.0]], "err-1": [[0.04416683718380379], [0.002553225934506147]], "err-2": [[-0.4754876755534182]], "current-gradient-0": [[0.07310869631893054, 0.15084940576745381], [0.03077364529172352, 0.0814592706357764]], "current-gradient-1": [[0.04257136021172314, -1.0400069643763004]]}, "fp-4": {"activation-0": [[4], [9]], "bias-0": [[0.0], [0.0]], "activation-1": [[-0.24145387120690998], [5.755312395570555]], "bias-1": [[0.025896473876545065], [-0.030341449630840372]], "activation-2": [[0.4992282744497133]], "bias-2": [[0.08167573504945641]], "weights-0": [[0.12613945758378012, -0.3272214462534183], [-0.6989305559652487, 0.9534862298958211]], "weights-1": [[-0.9288744893839401, -0.05369699501747248]]}, "bp-4": {"err-output": [[-0.5007717255502867]], "err-0": [[0.0], [0.0]], "err-1": [[0.04651540808684372], [0.026889936851764842]], "err-2": [[-0.5007717255502867]], "current-gradient-0": [[0.09636640036235239, 0.20317923986515302], [0.04421861371760594, 0.11171044959401186]], "current-gradient-1": [[0.057685519177358265, -1.400269179302653]]}, "fp-5": {"activation-0": [[8], [1]], "bias-0": [[0.0], [0.0]], "activation-1": [[0.7077906882933677], [-0.4668299667457008]], "bias-1": [[0.025896473876545065], [-0.030341449630840372]], "activation-2": [[0.3657007169422384]], "bias-2": [[0.08167573504945641]], "weights-0": [[0.12613945758378012, -0.3272214462534183], [-0.6989305559652487, 0.9534862298958211]], "weights-1": [[-0.9288744893839401, -0.05369699501747248]]}, "bp-5": {"err-output": [[-0.6342992830577616]], "err-0": [[0.0], [0.0]], "err-1": [[0.5891844226668776], [0.0]], "err-2": [[-0.6342992830577616]], "current-gradient-0": [[0.68555082302923, 0.2768272926985127], [0.04421861371760594, 0.11171044959401186]], "current-gradient-1": [[0.0015666284099279254, -1.3632554401505683]]}, "fp-6": {"activation-0": [[8], [0]], "bias-0": [[0.0], [0.0]], "activation-1": [[1.035012134546786], [-0.562178589735283]], "bias-1": [[0.025896473876545065], [-0.030341449630840372]], "activation-2": [[0.2995307609504354]], "bias-2": [[0.08167573504945641]], "weights-0": [[0.12613945758378012, -0.3272214462534183], [-0.6989305559652487, 0.9534862298958211]], "weights-1": [[-0.9288744893839401, -0.05369699501747248]]}, "bp-6": {"err-output": [[0.2995307609504354]], "err-0": [[0.0], [0.0]], "err-1": [[-0.27822648263261873], [-0.0]], "err-2": [[0.2995307609504354]], "current-gradient-0": [[0.40732434039661125, 0.2768272926985127], [0.04421861371760594, 0.11171044959401186]], "current-gradient-1": [[0.04031887494164458, -1.3843041627472499]]}, "fp-7": {"activation-0": [[1], [8]], "bias-0": [[0.0], [0.0]], "activation-1": [[-0.24657356385670215], [6.89861783357048]], "bias-1": [[0.025896473876545065], [-0.030341449630840372]], "activation-2": [[0.4850735816822388]], "bias-2": [[0.08167573504945641]], "weights-0": [[0.12613945758378012, -0.3272214462534183], [-0.6989305559652487, 0.9534862298958211]], "weights-1": [[-0.9288744893839401, -0.05369699501747248]]}, "bp-7": {"err-output": [[-0.5149264183177612]], "err-0": [[0.0], [0.0]], "err-1": [[0.04783020138852116], [0.02765000131877377]], "err-2": [[-0.5149264183177612]], "current-gradient-0": [[0.4133031155701764, 0.32465749408703387], [0.04767486388245266, 0.13936045091278562]], "current-gradient-1": [[0.056189780202716755, -1.828339234295185]]}}, "update-13": {"bias-gradient-1": [[0.0736706684918589], [0.017245571857061985]], "bias-gradient-2": [[-0.4165029902335229]], "weights-gradient-0": [[0.4133031155701764, 0.32465749408703387], [0.04767486388245266, 0.13936045091278562]], "weights-gradient-1": [[0.056189780202716755, -1.828339234295185]], "weights-0": [[0.1054743018052713, -0.34345432095777], [-0.7013142991593713, 0.9465182073501818]], "weights-1": [[-0.931683978394076, 0.03771996669728678]], "bias-0": [[0.0], [0.0]], "bias-1": [[0.022212940451952122], [-0.031203728223693473]], "bias-2": [[0.10250088456113256]]}, "batch-14": {"fp-0": {"activation-0": [[7], [9]], "bias-0": [[0.0], [0.0]], "activation-1": [[-0.2330555835531079], [3.5782600438123433]], "bias-1": [[0.022212940451952122], [-0.031203728223693473]], "activation-2": [[0.6117340027916789]], "bias-2": [[0.10250088456113256]], "weights-0": [[0.1054743018052713, -0.34345432095777], [-0.7013142991593713, 0.9465182073501818]], "weights-1": [[-0.931683978394076, 0.03771996669728678]]}, "bp-0": {"err-output": [[-0.3882659972083211]], "err-0": [[0.0], [0.0]], "err-1": [[0.03617412089541918], [-0.014645380484386713]], "err-2": [[-0.3882659972083211]], "current-gradient-0": [[0.031652355783491785, 0.040695886007346575], [-0.012814707923838374, -0.016476053044935053]], "current-gradient-1": [[0.01131094481915183, -0.17366458802268628]]}, "fp-1": {"activation-0": [[3], [6]], "bias-0": [[0.0], [0.0]], "activation-1": [[-0.1722090079878854], [3.5439626183992834]], "bias-1": [[0.022212940451952122], [-0.031203728223693473]], "activation-2": [[0.5978761284706688]], "bias-2": [[0.10250088456113256]], "weights-0": [[0.1054743018052713, -0.34345432095777], [-0.7013142991593713, 0.9465182073501818]], "weights-1": [[-0.931683978394076, 0.03771996669728678]]}, "bp-1": {"err-output": [[-0.40212387152933116]], "err-0": [[0.0], [0.0]], "err-1": [[0.037465236843367555], [-0.015168099042270398]], "err-2": [[-0.40212387152933116]], "current-gradient-0": [[0.04570181959975462, 0.06879481363987225], [-0.018502745064689772, -0.027852127326637853]], "current-gradient-1": [[0.019967113944691077, -0.3518035841059295]]}, "fp-2": {"activation-0": [[2], [0]], "bias-0": [[0.0], [0.0]], "activation-1": [[0.23316154406249473], [-0.1433832326542436]], "bias-1": [[0.022212940451952122], [-0.031203728223693473]], "activation-2": [[0.470000974145988]], "bias-2": [[0.10250088456113256]], "weights-0": [[0.1054743018052713, -0.34345432095777], [-0.7013142991593713, 0.9465182073501818]], "weights-1": [[-0.931683978394076, 0.03771996669728678]]}, "bp-2": {"err-output": [[0.470000974145988]], "err-0": [[0.0], [0.0]], "err-1": [[-0.4378923774414254], [0.0]], "err-2": [[0.470000974145988]], "current-gradient-0": [[-0.06377127476060174, 0.06879481363987225], [-0.018502745064689772, -0.027852127326637853]], "current-gradient-1": [[0.03366538305003548, -0.3602273664838914]]}, "fp-3": {"activation-0": [[1], [1]], "bias-0": [[0.0], [0.0]], "activation-1": [[-0.02157670787005466], [0.21400017996711704]], "bias-1": [[0.022212940451952122], [-0.031203728223693473]], "activation-2": [[0.5326225003692476]], "bias-2": [[0.10250088456113256]], "weights-0": [[0.1054743018052713, -0.34345432095777], [-0.7013142991593713, 0.9465182073501818]], "weights-1": [[-0.931683978394076, 0.03771996669728678]]}, "bp-3": {"err-output": [[-0.4673774996307524]], "err-0": [[0.0], [0.0]], "err-1": [[0.043544812826785524], [-0.017629463721133144]], "err-2": [[-0.4673774996307524]], "current-gradient-0": [[-0.05832817315725355, 0.07423791524322045], [-0.020706428029831414, -0.030055810291779495]], "current-gradient-1": [[0.03492594152185665, -0.3727297251130867]]}, "fp-4": {"activation-0": [[0], [4]], "bias-0": [[0.0], [0.0]], "activation-1": [[-0.13516043433791278], [3.7548691011770337]], "bias-1": [[0.022212940451952122], [-0.031203728223693473]], "activation-2": [[0.591473774448767]], "bias-2": [[0.10250088456113256]], "weights-0": [[0.1054743018052713, -0.34345432095777], [-0.7013142991593713, 0.9465182073501818]], "weights-1": [[-0.931683978394076, 0.03771996669728678]]}, "bp-4": {"err-output": [[0.591473774448767]], "err-0": [[0.0], [0.0]], "err-1": [[-0.055106663929418764], [0.022310371074526002]], "err-2": [[0.591473774448767]], "current-gradient-0": [[-0.05832817315725355, 0.04668458327851106], [-0.020706428029831414, -0.018900624754516496]], "current-gradient-1": [[0.02493295999010915, -0.09511640013380807]]}, "fp-5": {"activation-0": [[0], [7]], "bias-0": [[0.0], [0.0]], "activation-1": [[-0.23819673062524382], [6.594423723227579]], "bias-1": [[0.022212940451952122], [-0.031203728223693473]], "activation-2": [[0.6394934851802414]], "bias-2": [[0.10250088456113256]], "weights-0": [[0.1054743018052713, -0.34345432095777], [-0.7013142991593713, 0.9465182073501818]], "weights-1": [[-0.931683978394076, 0.03771996669728678]]}, "bp-5": {"err-output": [[0.6394934851802414]], "err-0": [[0.0], [0.0]], "err-1": [[-0.05958058344298204], [0.02412167296413056]], "err-2": [[0.6394934851802414]], "current-gradient-0": [[-0.05832817315725355, -0.005448427234098219], [-0.020706428029831414, 0.002205839089097744]], "current-gradient-1": [[0.00589230281184961, 0.4320199760564505]]}, "fp-6": {"activation-0": [[5], [0]], "bias-0": [[0.0], [0.0]], "activation-1": [[0.5495844494783086], [-0.35377752240205496]], "bias-1": [[0.022212940451952122], [-0.031203728223693473]], "activation-2": [[0.3958271711094693]], "bias-2": [[0.10250088456113256]], "weights-0": [[0.1054743018052713, -0.34345432095777], [-0.7013142991593713, 0.9465182073501818]], "weights-1": [[-0.931683978394076, 0.03771996669728678]]}, "bp-6": {"err-output": [[0.3958271711094693]], "err-0": [[0.0], [0.0]], "err-1": [[-0.368785833535743], [0.0]], "err-2": [[0.3958271711094693]], "current-gradient-0": [[-0.2888193191170929, -0.005448427234098219], [-0.020706428029831414, 0.002205839089097744]], "current-gradient-1": [[0.033084860052193854, 0.41451563156963517]]}, "fp-7": {"activation-0": [[4], [7]], "bias-0": [[0.0], [0.0]], "activation-1": [[-0.19600700990313527], [3.789166526590094]], "bias-1": [[0.022212940451952122], [-0.031203728223693473]], "activation-2": [[0.6054066668349064]], "bias-2": [[0.10250088456113256]], "weights-0": [[0.1054743018052713, -0.34345432095777], [-0.7013142991593713, 0.9465182073501818]], "weights-1": [[-0.931683978394076, 0.03771996669728678]]}, "bp-7": {"err-output": [[-0.3945933331650936]], "err-0": [[0.0], [0.0]], "err-1": [[0.036763628649103354], [-0.014884047385958717]], "err-2": [[-0.3945933331650936]], "current-gradient-0": [[-0.27043750479254125, 0.026719747833867213], [-0.028148451722810774, -0.010817702373616133]], "current-gradient-1": [[0.04275274247236906, 0.227618150364037]]}}, "update-14": {"bias-gradient-1": [[-0.09592720739186171], [-0.001986868324386551]], "bias-gradient-2": [[0.05555433791887093]], "weights-gradient-0": 